2413 100
糖尿病 -0.37032497 0.708117 -0.3481422 -0.5590744 -0.83443785 0.50636876 0.29181743 0.46533123 0.5267871 0.0053100195 0.40220582 -0.25833803 -0.7802756 -0.04337628 -1.4921799 0.0020605747 0.15912223 -0.31252924 0.002185104 -1.3346562 0.6107531 -0.7332227 0.47047856 0.14459547 -0.50454706 0.41366038 0.7516533 -0.47862422 -0.111467294 -0.6183229 -0.36329916 0.447418 -0.26077068 0.46765026 -0.60706645 -0.3135966 0.287927 -0.5890275 0.78081983 0.38076642 -0.51154137 -0.57617754 0.4265084 0.5776983 -0.29882333 -0.81035453 1.2089524 -0.6200026 -0.6798366 0.17089753 0.006873194 -0.19600104 0.35700902 -0.20055532 0.76033676 0.09844727 0.36119622 0.0050516543 0.36884207 -0.034580134 0.36119816 0.7007773 0.8162216 -0.107813045 0.5467657 -0.7943671 -0.25099725 -0.406648 0.26559234 -0.097214766 0.094833426 0.38010556 0.0879834 -1.1346843 0.091037855 0.35053942 -0.6646479 0.15725769 -0.13525747 -0.7946917 0.77611595 0.30090645 0.040887695 -0.24214745 0.21519274 -0.10517551 -0.22552408 0.19837816 0.057759225 0.3068204 0.5938404 1.1597861 -0.51234233 0.25124034 0.2290516 1.2258135 -1.0918041 0.5934616 0.32516837 -0.15918426
吗 0.35852566 -0.7052877 -0.50923383 -0.8508096 0.46683913 0.20026527 0.6611526 0.9969091 1.0373236 -0.4775001 -0.51470625 -0.8886353 -0.7761985 -0.14823541 -0.09972224 0.11795688 -0.081017315 -0.8246335 -0.43544614 1.1212136 0.3631753 0.3064735 0.2624919 -0.4660821 -0.549116 0.48139465 1.299249 0.50275844 0.055494994 -0.28269616 0.90914464 0.30978718 0.01606114 -0.04721986 -0.8352639 -0.89060736 -0.09293367 -0.21795447 0.02775013 0.5175484 -0.63254035 -0.53128105 0.9737367 -0.30874276 0.48085913 -0.42706388 -0.05301192 -0.38908997 -0.8113581 -0.09250831 0.10003077 0.06612517 0.36240804 -0.47572595 -0.5233631 0.7718518 -0.13315353 0.7777895 0.07125999 -0.79996425 -0.36873317 0.50493276 0.2591509 -0.17504804 0.42735267 0.0011400601 -0.46804896 0.44751734 0.65024406 -0.059025608 0.6164306 0.8058181 -0.45793754 -0.051858597 0.8744034 -0.1925797 -0.10975124 -0.9538471 0.86267006 -0.009729213 1.3029127 -0.6209599 0.19845818 0.6534879 -0.68461376 0.44427451 0.056911755 -0.58224565 -0.70876646 0.15108043 -0.18586642 -0.07218587 0.40015772 -0.44971725 0.4829684 -0.14060289 0.115942106 -0.19717526 -0.5290598 0.335675
？ 0.17325804 0.39877757 -0.19163446 -0.7827276 -0.3642615 0.3399052 0.5805244 0.12362529 0.36578152 -0.09005181 0.017483484 -0.008540239 -0.21143036 -0.14901675 -0.8998566 -0.20304336 0.13276178 -0.28768185 -0.113283955 -0.18488894 0.5688655 -0.7347016 0.1112175 0.27354303 -0.54979455 -0.0055330787 0.083746344 -0.32683107 -0.5055438 -0.7657789 -0.5252788 0.4694394 0.050700393 -0.12848502 -0.28001025 -0.021407722 0.05954604 -0.2820703 0.6142118 0.030183153 -0.54856527 -0.3720892 0.09036508 0.23918319 -0.23188129 -0.5353412 0.81383276 0.24065648 -0.11133235 0.7184597 0.1307829 -0.29522595 0.00095189264 0.2178703 0.38543835 0.158266 0.17403045 -0.2580959 0.34482804 -0.39605272 -0.11536097 0.16366772 0.35604623 -0.21328558 0.0878836 -0.20810731 -0.11560474 0.0668302 0.04817898 -0.06116823 0.16066389 0.1370272 0.2606746 -0.7463433 -0.22207543 -0.17105691 -0.25853536 0.17771956 -0.26580605 -0.3507732 -0.019596145 0.30023363 -0.22035883 -0.5503672 0.15351199 0.34462836 -0.46534613 0.45895404 0.091914855 -0.122863956 0.3548898 1.0032936 -0.45967755 0.10055536 -0.0043160953 0.77387065 -0.494938 0.046864912 0.08926527 -0.25097725
的 0.21938497 0.11325156 0.13801675 -0.6155407 0.27112007 0.39124894 0.50941545 0.13117418 -0.39793554 0.27353036 -0.30587083 -0.16662356 -0.19295081 0.04400987 -0.45736915 0.1815505 0.4661314 0.365782 0.1503583 -0.35842285 0.35634333 0.1104232 0.16795903 -0.17949487 -0.0037230786 0.3745656 0.36121142 -0.20662297 -0.14947271 0.20042408 0.68231726 0.042990226 0.66766095 0.09553845 -0.6777838 -0.32131162 -0.65596616 0.07451991 0.20892078 -0.34606493 0.8192007 -0.48972285 0.3766174 0.35489935 0.09976024 -0.24566491 0.68842566 0.1678303 0.028240118 0.20471543 -0.005274102 -0.10628967 0.1834947 0.1700197 -0.48545063 0.2329234 0.2168391 0.024829395 0.25902554 0.44892657 -0.32012594 0.19124883 0.07366036 -0.04153508 0.031762186 -0.061798487 0.07854951 0.63646674 -0.022038767 0.47329095 0.15630661 0.62095904 -0.057726655 -0.15579486 -0.13597432 0.33796847 -0.045012966 -0.12667395 0.28063264 0.031326953 0.4704233 0.11074246 -0.43037313 -0.26739314 0.17861827 -0.85210365 0.49803248 0.2944296 0.2654048 0.18031573 0.6978687 0.3272631 0.54499984 -0.03094379 0.14892483 -0.13875048 -0.670273 -0.21740602 0.19539651 0.09261773
， -0.0046523293 0.07132908 -0.4737889 -0.23796664 -0.7026281 0.27314827 0.6369327 -0.1398418 0.026183724 0.14759251 -0.45797735 -0.28142703 -1.1091667 -0.055629022 0.38701162 0.5148223 0.017292045 -0.37531853 -0.027091222 -0.37484896 0.3404876 0.084493384 0.52295595 -0.016754558 -0.016454015 -0.593654 0.32371193 -0.29479006 0.6518632 0.42978093 0.14076076 0.45245847 0.49468377 0.27215528 0.47877276 -0.41705945 0.107332356 -0.020572009 -0.083452016 0.14156945 -0.16627933 0.52895355 0.46065512 -0.12971525 0.22302453 0.09093274 0.46139884 -0.5993578 -0.11849335 0.3294558 -0.4455977 -0.23180425 -0.41085473 0.5248627 0.52622914 0.17473207 0.4015868 0.16243507 0.05101457 0.7709233 -0.6317479 0.35541227 -0.22476897 0.0006086356 0.24166188 0.2196747 0.12601134 -0.16319369 -0.086186804 -0.5856544 0.06704019 0.07501649 -0.21752374 -0.19594426 -0.18885064 -0.5992974 0.34719777 -0.03966179 -0.067952834 -0.17786711 0.88850117 -0.24133326 -0.023700755 -0.09235468 0.17010625 -0.38207975 -0.14673221 -0.27919883 0.14164172 -0.1899343 0.1518039 -0.23236385 -0.53903306 -0.24741332 -0.041067746 0.3228851 0.31891933 0.08542734 0.1898861 0.120977886
什么 0.18359818 0.6736523 -0.6005285 -1.9601558 0.7810514 0.80830234 1.1034714 0.5186289 -0.5297749 0.21971945 0.20736189 0.35808656 -0.6367567 0.9601829 -0.4938193 0.46016568 -0.30667356 0.024067063 0.81973356 0.5754097 0.53060955 -0.04291956 0.04079683 0.65627325 -0.24706568 -0.34168202 0.6782059 0.63706964 -1.1019715 0.2434532 0.5715722 0.46081024 1.0913947 0.017572448 -1.0404772 -0.65813714 -0.49033195 -0.16383967 0.3687571 -0.056944624 -0.06881391 -0.6946321 -0.3623205 0.4673643 0.64166605 -0.7213668 1.2860662 0.36293322 -0.07315726 -0.49908817 -0.27040952 -0.5014221 0.16447663 0.7357685 -0.5720473 0.29396972 0.7414205 -0.55249375 0.896091 0.50625914 -1.204195 1.0519769 0.043257084 -0.36256698 0.4148567 0.56793183 -0.27602294 0.30045506 -0.17469719 0.6871362 0.6229929 0.42795798 -0.55716664 0.30527598 -0.27218857 -0.35746366 0.39382395 -0.6932624 0.37143376 -0.32399487 1.216121 -0.194153 -0.06922587 0.21937127 0.27061984 -0.38769642 -0.3273564 0.8355651 0.46761382 -0.7104098 1.2717303 -0.15193702 0.43197218 -0.010164544 -0.5065895 0.052285694 -0.56839 -0.6555698 -0.08842063 -0.057441622
有 -0.40219814 0.17680807 0.43565175 -0.23895788 -0.0033450932 0.54516894 0.42748252 -0.25678676 0.21671595 0.24705672 -1.1676742 -0.4960376 -0.095634595 -0.30079114 -0.22781329 -0.11590422 0.7314714 0.18385342 -0.2310966 -0.4068138 0.88377804 0.45315644 -0.15505175 -0.034944445 0.3602602 0.060273074 0.08085006 -0.33915982 -0.11995891 0.20030315 0.59350336 -0.13430263 0.60568 -0.29242942 -0.58775705 -0.15000205 -0.44054452 -0.06350236 0.34127948 -0.29644835 -0.09533392 0.046902154 0.12725061 0.69613016 -0.34056848 0.19109593 0.9337825 0.19822116 0.7861833 0.6709866 0.3691136 -0.41244352 -0.50534236 0.07346063 -1.0335145 0.23182285 -0.45838627 0.16094019 0.5538208 0.2655301 -0.5489414 0.25882962 -0.3753151 0.08418096 -0.20169789 0.15196468 0.017967114 0.56266606 -0.4004851 0.14083835 0.66111255 0.5744941 -0.0077657998 -0.0149179 -0.48885167 -0.11326025 -0.10291423 0.018260337 0.41594297 0.22113144 -0.27973747 0.6096933 -0.36418608 -0.12108763 -0.047656074 -0.6146781 0.066693604 0.3616416 -0.035683174 -0.3911378 0.7665683 0.62387 0.32179222 0.01904373 0.02545175 -0.3570096 0.12065151 -0.0009316178 0.15423672 -0.47586328
高血压 -0.4073176 0.33264825 -1.1048862 -0.3697363 -0.612059 0.19048546 0.40954855 0.43060163 0.38283265 -0.42762557 -0.30855545 -0.7199997 -1.0857778 0.12048348 -1.1248763 0.3611031 0.55614483 -0.5985017 0.22462839 -1.133515 1.0263087 -0.7482994 0.3346616 0.044624608 -0.5069464 0.32845074 0.24568301 -0.126049 0.22043632 -0.5938374 -0.2985679 0.49685723 0.3305867 0.24370198 -0.082746774 -0.43496695 0.5387472 -0.9574363 0.82617474 0.27509922 -0.26363155 -0.26907665 0.15918402 0.44733852 -0.38992777 -0.3590648 1.0486681 -0.9088206 -0.74623346 0.31802392 -0.34396794 -0.61687297 0.07430997 0.5458068 0.1871795 -0.08448535 0.6191324 0.2799575 -0.13915041 0.44479236 0.2729638 1.1147431 0.2521328 -0.6075805 0.25879386 -0.53018564 -0.31963024 0.113113336 0.16042101 -0.42281318 -0.07300829 -0.22094929 0.37145898 -0.48793048 -0.750407 -0.04802599 -0.1907984 0.4589688 0.2127142 -0.4944052 0.7510689 0.20167652 0.3574101 -0.66047025 0.029466169 -0.18622655 0.042733535 0.24612662 0.20313317 0.5999686 0.061216682 0.4119006 -0.7474703 -0.009246019 0.123771235 0.70671177 -0.3049878 0.33910006 0.27046233 0.3235128
会 0.97899455 -0.46656245 0.53868943 0.52430695 0.10363357 -0.7352603 0.37025455 -0.54881144 0.05933386 -0.35762733 -1.7106557 -0.86003906 -0.12479762 -0.81897724 -0.061553437 0.3112455 0.70045906 -0.10033304 -0.3238105 0.1295094 0.6048218 0.033217803 0.063549034 -0.70689017 0.8291471 0.22249499 0.28478122 -0.56040716 0.79395074 -0.40594265 1.08207 -0.025133634 1.1778448 0.27699468 0.2860425 -0.8363962 -1.1890223 -0.42021266 0.22721076 -0.5092172 0.80054873 -0.81244975 0.5673002 -0.41781452 -0.66170144 -0.18545176 0.60153705 0.20450792 0.95857877 1.2310885 0.612763 -0.26452214 -0.67086196 -0.3492985 -0.88240975 0.49646866 -0.23230542 0.29160503 -0.2774975 -0.13562429 -0.3858827 -0.39874247 -0.30911097 -0.060397703 0.47193566 0.16752756 -0.46825382 0.4512109 0.48916078 0.35166112 0.6869669 1.5282208 -0.009369851 -1.5060117 -0.060938854 0.70413744 0.33070394 -0.3266641 0.8605531 0.4899803 0.61511046 0.41755962 -0.7788232 -1.140313 0.11737953 -0.8569959 0.05460631 -0.59537685 0.09159279 0.49931023 0.5629949 0.49650076 0.9601516 -0.3707285 1.2483481 -1.010515 0.12506407 -0.14236315 -0.13627891 0.13247137
乳腺癌 0.2919805 0.94532907 0.20972818 -0.9282095 -0.55501443 0.2530376 1.8036752 -0.43094864 1.6009759 -0.07761513 -1.4347363 -0.56139475 0.17619419 0.70974123 -0.3309021 -0.64916545 -1.0624752 -0.5810508 0.06461292 0.030366013 1.2762662 0.38976476 0.7111879 0.18447548 -0.19041012 1.0160947 0.6441793 -0.7993562 -0.059290648 -0.8518551 -0.44950005 0.89984196 0.35331994 -0.6328699 -0.009085177 -1.6870304 -0.09918021 -0.97507185 1.4402245 -0.20610255 -0.33396742 -1.7810684 0.45832166 -0.77144325 -0.6081534 -0.5683235 1.1400982 -0.116639234 0.7229847 1.97179 0.5995928 0.02576974 -0.7476343 0.24319406 -0.8243455 0.6321788 -0.30208775 -1.2053965 0.8595149 -1.7413102 -1.3298353 0.13529441 1.2608947 -0.5980997 -1.0015693 -0.45740283 1.0035992 0.33815378 0.704728 0.59168434 0.42593324 0.40650427 -0.12683919 -0.6888862 0.4141404 -0.53411764 -0.3021509 0.84740907 0.29226017 0.033177007 -0.33643347 1.6039201 -0.569216 -1.4413594 1.0407093 0.50876296 -0.4003491 -0.809358 1.0462115 -0.032265753 -0.57634246 1.081394 -1.0288996 -0.51313186 0.47231224 -0.41152674 -0.029077692 -0.8363385 0.1627936 0.29696882
是 0.43312818 0.10132483 0.8620148 -1.0372162 -0.7601082 -0.0032444496 0.33169478 -0.61481637 -0.39098305 0.53401744 -0.20932254 0.8434424 0.078421935 -0.68203425 0.05988075 -0.49734172 0.5366867 0.081135415 -0.16713937 -0.6025925 0.34500092 -0.116104774 0.08149308 -0.4087405 0.56366885 -1.3503826 -0.12331785 -0.7653576 0.17254935 0.89813125 -0.008991262 0.43866235 0.47429225 0.74591225 -0.11607607 0.1527362 -0.43271732 0.59739405 -0.09919371 0.42589357 0.40175128 0.6535847 0.49550113 0.20173949 0.18331762 0.7147542 0.7788587 0.5591193 0.83139914 0.3780651 -0.24770169 -0.30602607 -1.1277909 0.60519713 0.12509191 0.40487954 -0.36167508 -0.93257517 -0.15734968 0.6009314 -0.7097108 -0.39185604 -0.49604693 -0.05278414 -0.12194837 0.7838943 0.04457913 0.8865693 0.4136948 -0.025067704 0.55882645 0.5165162 -0.31708378 -0.006934409 -0.48195466 0.14036615 0.24645568 -0.042539954 0.0030108986 0.15571956 0.042591356 0.22952035 -0.72147214 -0.25929514 1.0840442 -0.2919908 -0.25367454 -0.34002358 -0.06759117 0.067351565 1.1952522 0.8027739 0.49188557 -0.24990772 -0.088338226 0.12480656 -0.0913076 0.35415652 -0.46378332 -0.36317763
吃 -0.92280483 0.06397972 -0.6490873 -1.1109916 -0.08173975 -0.2349713 0.020109918 -0.007253774 0.8768717 -0.5899334 -0.5323207 0.23812458 -0.9785124 -0.43490425 -0.56526107 0.025972228 0.9527537 -1.4673724 -0.5769014 0.40498126 1.8637949 -1.2912554 0.2686524 1.534126 -0.9709394 -0.3290429 0.6230576 0.7445511 -1.1535791 -0.22946732 -0.22438194 0.33421803 -0.24178898 -0.1045186 -1.0489861 0.6809697 -0.3170382 -1.4478817 1.006572 1.1381766 -0.9537281 0.31341022 -0.83392894 1.0075796 -0.30247605 -0.35436997 0.598168 -1.1343807 -1.1906848 0.559742 -0.19744357 0.08633945 -0.1529738 0.6493138 0.19171852 -0.65039283 0.76569015 -0.25369197 -1.0384505 -0.4488548 1.1132964 1.5195595 -0.20653221 -1.0080928 0.7906177 0.50965095 -0.28306955 0.26981997 -0.044666603 -0.25508416 1.2510889 -0.15111527 0.62750465 -0.3233235 -0.0816793 0.012929721 0.21721849 -0.54642755 0.6894881 0.32251218 -0.9493402 0.88131005 0.63255113 -0.7072873 -0.54013526 -0.63343483 -1.3968749 0.42661133 0.10483157 0.24038061 0.3203448 0.83517164 0.2990037 -1.2033417 0.12009287 -0.051116914 -0.13295527 0.98676556 -0.060209993 -0.65869945
艾滋病 -0.27583614 -0.51121813 0.45636478 0.73369455 -0.10868547 0.21504728 1.1381689 -0.8441323 0.21856306 -0.18028772 -2.3794932 -0.75445974 -0.963158 -0.1424185 0.14808424 0.38912183 -0.22595571 -0.4313863 -0.5192587 -0.6750746 0.5973366 -0.022870876 -0.08859558 -0.5736521 1.1665901 0.31470346 1.1430184 -0.8214485 1.1111721 0.0059524393 1.0086234 0.26255098 0.77945346 1.236456 0.01974325 -1.1004294 -1.5516751 -1.2892479 0.45563704 -0.054226503 0.9770009 -1.3966373 0.9821372 0.0073015774 -0.29779524 0.16588916 0.5793984 -0.49698374 0.57909864 1.1830003 -0.15196455 0.17280595 -0.77142465 -1.0451479 -0.42318693 -0.48312876 0.30275398 -0.20934698 0.30130264 0.44640294 -0.6147876 -0.46530265 0.18860565 0.1903707 0.3184718 0.37712583 0.41237402 1.2377101 0.61720395 0.6544811 -0.64575434 1.6083369 -0.17900135 -1.3184961 0.5619256 -0.2596682 -0.18198964 0.10643082 0.4880888 -0.253327 0.6382883 1.1912799 -0.5974239 -0.80347514 0.1504064 -0.7192254 0.30720213 -0.99127823 1.1811347 0.775767 0.25645673 -0.05657084 0.013996644 -0.3498009 0.9599526 -1.0398148 -1.0090376 1.0100819 0.32843602 0.5704336
能 -0.56448805 -0.17884731 0.06327172 0.16207011 -0.3590418 -0.23691328 0.4006211 -0.20062062 0.3945865 -0.8888858 -0.41477722 -0.9749698 -0.26252759 -0.52437514 0.4124912 0.86410236 -0.3738306 -0.06408235 -1.0848385 1.463394 1.0726396 -0.46488538 0.19401842 1.0888237 -1.1524175 0.3708188 0.8093154 1.2089443 -1.169362 0.002005144 0.54867595 0.6293721 0.8262251 -0.44981095 -0.28940022 -0.12214805 -0.93731105 -0.74614483 0.045819957 0.2744064 -0.5895128 -0.3155424 -0.058585674 0.15894416 -0.42871103 -0.3418736 -0.046861853 -0.68853754 -0.6314687 1.1445007 0.16443627 -0.8243686 -0.24704199 0.23439473 0.5885013 0.986913 0.45285624 0.058846243 -1.2166817 -0.48065338 0.71757317 -0.23663144 -0.33013454 -0.33941337 1.2707139 -0.029409807 -0.4140858 0.083483785 -0.4998807 -0.43976027 0.93849695 0.6610029 -0.3303978 -0.07265551 0.9139503 0.023020035 0.6423742 -1.0958623 0.31553206 0.085584536 -0.16548865 -0.14856467 0.47118384 -0.33338335 -0.8592126 -0.83176494 -1.0264802 0.27867207 0.24576388 -0.07801738 -0.5402934 -0.4839881 0.5173946 -1.3682251 0.68174106 -0.84164053 -0.12722708 -0.0899135 -0.38860035 0.15620755
可以 -0.49021766 -0.14419053 -0.14646512 0.04372123 -0.92473656 -0.18059501 0.5294968 -0.13262375 0.44421878 -0.43838146 -0.18498306 -0.61527884 -0.537855 -0.82555807 0.15176119 0.8012086 -0.43999 0.1603106 -0.843992 1.3010786 0.712814 -0.22851788 0.19708651 0.93677014 -1.15887 0.45371974 0.63587695 1.1945469 -0.80505073 0.08211548 0.42574185 0.59512 0.4272342 -0.3439086 -0.20676382 0.15860881 -0.74322176 -0.37322345 0.015300509 0.5259169 -0.39969823 -0.16510758 0.09579329 0.032875508 -0.23806046 -0.2833716 -0.073734865 -0.44584665 -1.1747822 0.9213216 -0.10395091 -0.9824466 0.084475555 0.6025005 0.61449504 1.2870187 0.28723523 0.09201293 -0.9628115 -0.047128513 1.0146812 -0.15526624 -0.7128084 0.0102502545 1.331042 0.09519458 -0.26877436 0.27275124 -0.6439407 -0.41776717 0.9131741 0.671136 -0.41658708 -0.46188867 0.9543486 0.263268 0.25508174 -1.2998292 0.19487534 -0.16760373 -0.66853666 -0.41337532 0.54003674 0.18864931 -0.70473695 -0.69454724 -0.9970432 0.6412251 -0.19200139 0.24372211 -0.3230467 0.082310945 0.24776126 -0.91333055 0.45376933 -0.22372857 -0.04107925 -0.20289886 -0.2789478 -0.23925085
治疗 -0.06906847 0.59593433 -0.057233386 -1.995351 -0.26347128 -0.13603282 0.2514775 0.467808 0.72302336 0.9086974 -0.5000669 0.7642255 -0.67389023 0.07827108 -0.18928252 -0.9359173 -0.31506902 -0.023435446 0.0006354793 -0.5869809 0.19134285 -0.15100256 0.5638129 0.4487321 -0.30884606 0.50501007 -0.9225037 -0.19233778 -0.7313296 0.3815813 -0.23829141 0.83204645 0.23654509 -0.4875661 0.60951215 -0.39364454 -0.009335922 0.2049166 0.854442 -0.3304148 0.41914624 -0.16785324 0.4860091 -0.51815104 -0.562808 -0.08832365 0.58541936 0.009166944 -0.0027716754 1.267961 0.3378284 0.8379925 -0.43007258 0.6873745 0.3239588 0.14310676 0.6009072 -0.7687082 -0.6369047 -0.5920714 -0.7069806 0.961142 0.35993728 -0.6348726 -0.52032113 0.26033235 0.5087031 0.7950902 -0.30222788 0.015170024 0.09188366 -0.13333754 0.63653994 -0.26980436 -0.50303155 0.4507227 -0.11615145 0.3392388 0.15291212 0.23295249 -0.49026313 0.894664 -0.31329176 -0.5527471 0.8768168 0.3883145 -0.8036438 1.5452379 0.57864857 0.6488712 0.30877784 0.5034668 0.2804194 -0.102887966 -0.71604717 0.9361915 -0.004107411 -0.34717923 0.76007485 0.11356587
乙肝 -1.7677073 -0.009057359 0.15697931 0.09601149 -1.1882789 0.6466424 1.5673404 -0.1881553 -0.33880416 0.26146653 -0.43134293 -0.009300321 -0.8771903 0.3391956 0.50885576 -0.27536264 -0.9734196 0.8762754 0.30806774 -0.045965184 0.56887454 0.59821117 0.7242948 0.054066528 0.28503734 0.08818363 0.55220777 0.13256072 0.13950628 0.6258964 0.42991403 0.9752745 0.8018041 0.75202173 0.4947317 -0.495624 -0.0009605054 -0.76751435 0.67661947 0.13781789 0.5525046 -0.12022203 0.58542305 0.4987013 0.44239902 0.8506782 0.3304017 -0.37786937 -0.29380882 -0.26723382 -0.19336976 0.13504228 -0.024574554 0.97279954 -0.17519782 0.33032334 0.7468308 -0.29856393 0.67641443 0.94908166 -0.65262014 1.2050725 -0.43154022 0.11218325 1.0344211 0.24370062 1.1466296 1.6271547 -0.008692067 0.11357906 -0.13645738 0.2558669 -0.68766284 0.26047373 0.13527015 -1.6155444 -0.14798911 -0.5105687 0.10478449 -0.8596568 0.14710598 0.9264462 -0.08529894 0.39917165 -0.028085122 -0.10332159 -0.18147485 0.3074297 0.8215994 0.7036509 0.24373543 -0.5734251 -0.6656165 0.20038728 0.085155554 0.07351104 0.43524656 0.76621413 -0.33957523 0.30797637
糖尿病人 -0.6980825 0.21163501 -0.97870445 -0.6580244 -0.15733983 0.17556386 0.48460382 0.1155208 0.4470766 -0.38727042 0.19679722 0.016466059 -0.9971745 -0.13534263 -0.52743614 0.32577828 0.35096282 -0.28955284 -0.48071575 -0.18365963 1.4394253 -1.3233943 0.33875585 0.547536 -0.50007606 -0.17135714 0.7412466 0.4268189 -0.51216036 -0.5943256 -0.20119993 0.7251812 0.08368067 0.5279816 -0.57998544 0.10026619 0.2858996 -0.6472499 0.70228523 0.524285 -0.5974948 0.18955909 -0.32708836 0.22655438 -0.0775512 -0.3018694 0.4255196 -0.6642667 -0.50059664 0.43902305 -0.30929083 -0.25023878 0.11673527 0.1652298 0.67169636 -0.43187442 0.69365364 -0.26689693 -0.32605127 -0.40614617 0.7253949 1.2686423 0.43939218 -0.3527333 0.76912177 0.1752091 -0.17571567 0.4057243 0.2142847 -0.5014796 0.16353752 0.119204916 0.6714555 -0.7608058 -0.47054937 -0.2853854 0.24790047 -0.34190756 -0.062374655 -0.27872097 0.56813526 0.37065017 0.35460138 -0.2972801 -0.3339209 0.25645217 -0.8952738 0.24971424 0.39037004 -0.022486502 0.28893977 0.551182 -0.6482412 -0.42297566 0.10231982 0.88611585 -0.64119154 0.59447914 0.42828268 0.043094896
怎么办 1.6248106 -0.016512983 -0.30480987 -1.3270916 -0.17987013 -0.017785722 0.8754802 0.12650783 0.18008317 0.17044437 -0.09432847 -0.010451947 -0.57135063 0.36015543 -0.06865517 0.27028924 0.01689209 -0.54786044 0.18069617 -0.077127814 0.55156064 -0.14085554 1.0043168 -0.11285543 -0.54859036 -0.59261537 -0.2044882 -0.7261529 0.023065673 0.47393832 -0.27668062 0.42423454 0.760831 -0.29829448 0.1838164 -0.9577462 0.29575935 0.16410421 0.035054915 0.13728356 0.090168074 0.2409734 0.1499433 -0.26043534 -0.020223858 -0.22502503 0.6050341 -0.26197356 -0.023276214 1.1102487 -0.374336 0.10245635 -0.86634547 0.90825856 0.0114766965 -0.25837418 0.010828179 -0.24789205 -0.6419441 0.5328415 -0.8699286 0.32098502 0.87104267 -0.3066146 -0.5054713 -0.31801653 -0.0022510956 -0.18071584 0.053860683 -0.43148485 0.7097201 0.14691253 -0.6499915 -0.42663038 -0.032909792 0.12053044 0.34908566 0.5948092 0.1955019 0.6582848 0.6667276 -0.6387623 -0.8244454 -1.4314983 0.87953794 -0.17135271 -0.28380707 -0.24848302 0.104648925 -0.14391702 -0.035380498 0.112516515 -0.1230087 -0.9744613 -0.27015668 0.11407553 0.1853901 -0.38617247 -0.16330704 -0.29953492
怎么 0.9566615 0.17740448 -0.09381033 -1.5652003 -0.59901506 0.45293495 1.2173554 0.8321129 -0.09478872 0.2839272 0.53541505 -0.21824014 -0.60152036 0.50493455 -0.4188271 0.10440396 -0.23541202 -0.14278491 0.4605251 -0.08564644 0.0029350673 0.15346567 1.0405563 -0.1739158 -1.2674687 -0.1227084 -0.1016487 -0.60432786 -0.46501142 0.9282144 -0.41101563 1.0110873 0.61190736 -0.44803354 -0.13416727 -1.3895936 0.15361382 0.0060023773 0.12863508 0.13101934 0.3523028 -0.18140388 0.85021996 -0.03770707 -0.08156297 -0.3166011 0.8056526 0.021908028 -0.719622 0.66764295 -0.15886289 -0.060483996 -0.27951902 1.2307518 0.06670265 0.60897267 -0.30670702 -0.24009769 -0.68889433 0.86254555 -0.6273759 0.3988869 0.53992695 -0.30577853 -0.28712466 -0.9716237 0.36253628 0.46981537 -0.23314977 -0.36235932 0.7463978 0.024421986 -0.81354505 0.39066893 0.40400776 0.48331523 -0.09878776 0.28854364 0.1652277 0.44673598 0.3914923 -0.5291329 -0.53004354 -0.90115184 0.9323831 -0.38004705 0.12023255 0.45563632 0.0050782226 0.58939016 -0.5614158 -0.14810707 0.24698971 -0.7585007 -0.44512385 0.31127465 0.27538 -0.5362773 -0.5542961 -0.18999714
了 0.1799084 0.23212503 0.18555816 0.17762917 -0.04960097 -0.24609938 0.6978675 -0.169735 0.7435212 -0.16959924 -0.9294719 -0.43923315 -1.1104537 0.20348457 0.777102 0.63452613 -0.51544756 0.5242195 -0.607261 0.22740908 0.40055093 0.2297242 0.9779566 -0.45125416 -0.13449568 -0.42004764 0.8495056 -0.6023625 0.23259316 -0.37828293 0.7084872 0.34099987 0.74638355 -0.26753742 0.6942125 -1.0567526 -0.31870607 0.4569489 -0.35220307 0.3362618 -0.011035303 0.37718475 0.6314415 0.034899183 0.21901426 -0.1812384 -0.0188656 -0.43566096 0.12754291 1.2542971 -0.04621175 0.56203365 -0.09270114 -0.3006262 0.92738223 -0.4793834 -0.0868416 0.28024414 -0.6484427 0.39065275 -0.6303724 0.031056892 0.8025758 0.60803235 0.12060224 0.12197859 0.42310014 -0.3796591 -0.10362753 -0.47331592 0.03888265 0.7696667 -1.0316592 -1.2441046 0.521634 -0.6619151 0.32714212 0.41709876 -0.34922895 0.0645342 1.0016276 -0.605677 -0.6123127 -0.2623638 -0.087068714 -0.5650442 -0.26506287 -1.1900216 -0.021991804 -0.40918192 -0.28709084 -0.4112368 0.1792931 -1.1660371 0.58268434 -0.27330184 -0.058073018 0.31249893 0.3377525 0.038967595
我 -0.26392937 0.20765963 -0.39669976 0.01118782 -0.6222201 0.18979375 0.049045533 0.13007902 0.099310055 0.23923825 -1.0739627 -0.2502906 -1.7663507 -0.30754548 0.070761636 0.622156 -0.087701194 -0.6009854 0.08536981 -0.83254594 0.3028244 0.45158526 0.47345507 -0.36497962 0.2982632 -1.0782588 0.6132191 -0.3842016 1.3014497 0.4638596 0.42924482 0.35682407 0.5338763 0.81514573 0.64118993 -0.65864277 -0.60890037 0.024723088 -0.35732993 0.3581403 -0.13653159 0.4772649 0.79051256 -0.004303778 0.27273452 0.010317787 0.5929693 -0.60309094 0.020563297 0.23523289 -0.25887498 -0.1801972 -0.2792551 -0.098857224 1.2426054 0.07306794 0.26532722 0.109807566 -0.29324502 1.1560854 -0.22465912 0.36954 -0.691436 0.47484648 0.5375474 0.44592494 -0.15109019 -0.31418884 0.09308626 -1.0474242 0.113027744 0.16325192 -0.8416855 -0.577115 0.05182169 -0.15279038 0.25919607 0.072063915 0.02088067 -0.607868 1.1659862 -0.16791078 0.17869177 0.033117577 0.109663896 -0.5997785 0.29022676 -1.1903627 -0.4235578 0.36619556 0.5573376 -0.23028779 -0.1364658 -0.5682883 0.119381644 0.19585437 0.48914775 0.21932846 0.05603244 -0.045406148
患者 -0.3993071 -0.21641193 -0.45683834 -0.4910872 0.21936318 -0.077065684 0.045791637 0.13182439 0.60102236 -0.20135155 -0.6131531 -0.5501042 -0.6265124 -0.30494344 -0.30606923 -0.015482999 0.49267578 -0.42383102 -0.3948945 0.27888268 0.8668268 -0.61983395 0.1526177 0.16690722 -0.2964163 0.27951702 0.09338238 0.29196978 -0.17356713 -0.2327664 0.017826116 0.12667783 0.23066862 -0.1574944 -0.3551846 -0.19862783 -0.30768615 -0.27679768 0.2585472 0.2280116 -0.2670092 0.13835482 0.03303867 -0.031144967 -0.25147164 -0.3398025 0.2660762 -0.6022307 -0.3187565 0.99639857 0.21633767 -0.09813181 -0.13521034 -0.37338328 0.3204064 -0.011808049 0.33499527 0.097318575 -0.6462717 -0.1454048 0.14075576 0.4125962 -0.08407064 -0.36825016 0.493823 0.1184526 -0.36598784 0.13141872 -0.17262746 -0.21392637 0.39063615 0.35391772 0.39843613 -0.70125365 -0.14094718 0.26351348 -0.13357627 -0.15616728 0.32977998 0.13104711 0.33937237 -0.039629906 0.27941084 0.07989962 -0.3888775 -0.03182024 -0.5099517 0.2672224 -0.0043647154 0.27749282 0.033228498 0.17447686 0.27516934 -0.37018025 0.18699539 0.3262801 -0.09453106 0.341269 0.42409506 0.14901161
如何 1.032067 -0.07571378 -0.10745774 -1.3188062 -0.41331002 0.27384323 0.9311845 0.8307907 -0.00074287754 0.27428564 0.5383291 -0.24766329 -0.31650233 0.41978517 -0.69973767 0.0039161053 -0.04400768 -0.2208473 0.42159396 -0.16808112 0.02645612 -0.010740353 0.76409936 -0.19098987 -1.1193064 0.35103795 -0.21514933 -0.46909398 -0.5340349 0.7370691 -0.3856257 0.7365211 0.5073351 -0.31763318 -0.37543666 -1.236703 0.10777588 -0.20423266 0.0790044 0.040320687 0.4102092 -0.345228 0.6438128 0.018803343 -0.30464217 -0.50620735 0.7138998 -0.12854531 -0.9134005 0.8739654 -0.19477683 -0.2110577 -0.22852811 1.0634145 -0.06494715 0.5133071 -0.23687397 -0.26297042 -0.743154 0.7607887 -0.35074267 0.23933424 0.60544664 -0.3793232 -0.084739186 -0.88519233 0.21881312 0.3492805 -0.38834977 -0.1022461 0.7649038 0.24396022 -0.5431547 -0.07559672 0.4999225 0.89244574 -0.44057518 0.2076991 0.39641914 0.5192695 0.27955696 -0.52969813 -0.44167066 -0.885038 0.8250986 -0.40200412 -0.11687669 0.9027136 0.022808053 0.6653469 -0.27219647 0.14446308 0.41459087 -0.5102707 -0.4802838 0.40819004 -0.051125485 -0.3635338 -0.2930035 -0.16181357
传染 -0.87911767 -0.6044682 0.37545794 0.7079012 -0.20880167 -0.29898652 0.74517095 -1.064932 0.9291016 -0.34627396 -2.2772758 -1.1497663 -0.4066029 -0.85687304 0.4714303 -0.14668068 0.055768684 -0.3742348 -1.0465481 0.119639955 1.3657637 0.63870376 0.23660195 -0.4570139 1.1748011 0.2514444 0.93091434 -0.18457027 0.7704733 0.15327813 0.97711265 0.54653376 0.62145114 0.98003924 -0.20231487 -1.1366289 -1.6517129 -1.0175647 0.197267 0.7931725 0.3276582 -1.2583303 0.6517163 -0.2570007 -0.4286656 0.5895002 -0.06674108 -1.5054373 0.6808921 1.567225 -0.070366874 -0.78207374 -1.6557332 -1.1741643 -0.41302964 0.31705478 -0.29416397 -0.703489 -0.7908312 0.0301409 -0.36527 -0.8280825 -0.43828657 0.063893385 0.49506223 1.3384136 -0.3815642 1.8944083 0.7512428 -0.2118733 -0.11821143 1.5329995 -0.07968135 -0.8667624 0.44230196 0.5260883 -0.32329398 -0.33475843 1.0170356 -0.04775549 0.1657018 0.6898942 0.08327814 0.026507257 -0.0656469 -0.40535682 -0.087588996 -0.69731504 0.9366146 0.8395373 -0.07677361 -0.35052964 0.39892584 -0.61139446 0.58482456 -1.0010376 -0.38084126 1.0430555 -0.18243252 0.68342817
好 -0.54315037 0.7260768 -0.41379508 -1.615386 -0.50912863 0.18487965 0.9594982 0.40163428 0.5729727 -0.017466893 0.3340579 0.34121442 -0.7823277 0.3987217 -0.3719725 0.25898957 -0.3283561 0.0073234774 -0.1431879 0.13509133 1.0484167 -0.8214111 0.62386477 1.1733078 -1.4903867 -0.29730058 0.23760755 0.5991088 -1.6224436 -0.10112291 -0.54712623 1.0927448 0.29557648 -0.45305145 -0.48487726 -0.02997463 0.0029338938 -0.39571905 0.8941805 0.30007255 -0.608771 0.11141157 -0.5209055 0.42248142 -0.17764775 -0.3592297 0.6111072 0.40874586 -0.90095276 0.67814744 -0.117913865 -0.08407695 0.43808857 1.267117 0.42926732 -0.059156686 0.41821432 -0.7406354 -0.48269758 -0.06481954 0.3914639 1.3416532 0.12330364 -0.29461908 0.41037625 -0.1677628 0.3944041 0.38049898 -0.58244276 -0.2727057 0.84684783 -0.33300155 0.2417771 -0.03480706 0.14605513 -0.09091652 0.27229655 -0.57368726 -0.37782767 0.033800893 -0.83640426 0.71387815 0.15837288 -0.6564245 -0.04887193 -0.2538564 -1.4046987 1.3616925 0.21418193 -0.025320407 -0.015690867 0.6906004 -0.084674396 -0.8878958 -0.4163566 0.70459694 -0.23350704 -0.17116196 0.42493603 -0.78597325
和 -0.4703316 -0.38188064 -0.80996406 -0.24569131 0.15943041 -0.18390362 0.049680542 0.4279514 0.1259448 -0.3604919 -1.055424 -0.49461752 -0.40339163 -0.31465364 -0.35539663 0.09788266 0.59160626 0.2553796 0.45660618 0.13071144 0.8944974 0.2294291 0.084129766 -0.26996213 0.101269245 0.25611857 -0.30090752 0.35499552 0.50431466 -0.22402714 0.53211236 0.178625 0.79087514 -0.013572151 0.09449157 -0.32136992 -0.29362968 -0.13270995 0.19192016 0.20325431 0.5631059 -0.19135013 -0.10186206 0.03618967 0.01758222 0.5505508 0.48946393 -0.15549898 -0.029693695 0.33269614 -0.06629643 -0.85556805 0.014501797 0.606288 -0.66345316 0.24209419 -0.03436508 0.2262835 -0.47053176 0.5213206 0.012238357 0.5210421 -0.47611427 -0.15648396 0.3408567 0.43520075 -0.28580427 1.2773594 0.10996836 -0.33300263 0.5152498 0.056412462 -0.2771769 0.054951623 -0.57001346 -0.034568314 0.22305779 0.04795101 0.75055057 -0.13486284 0.3191981 -0.15503895 0.04475927 -0.27051845 -0.22967492 -0.24378887 0.33915007 -0.15043193 -0.12867577 0.8112356 0.43053675 -0.03636063 0.248231 -0.31503278 0.08662821 -0.31327936 0.7088486 -0.21430115 -0.5429914 0.34100315
症状 0.4703965 0.7656284 1.3381534 -1.0080545 0.4468344 0.43028548 0.8925168 -0.6221156 0.7168356 0.371274 -1.6425544 -0.39450762 0.28625506 0.217847 -0.50069493 -0.2710831 -0.5616154 -0.9088109 0.15856217 -0.6744634 0.5896979 0.46702567 0.11697372 -0.08248579 0.8398226 -0.711133 0.71002126 -0.20529519 -0.66465884 0.54343605 0.11753077 0.22591442 0.89422065 0.33879927 -0.5208741 -1.1116267 -1.2344846 -0.7719139 0.4018067 -0.24306095 -0.48755926 -1.0817161 0.13533424 0.4320855 -0.58860624 -0.3548321 1.6727458 0.540572 1.2775487 0.85942566 0.8350415 -0.14646068 -1.1658962 -0.42873743 -1.3081081 0.18063538 -0.5594674 -0.9296985 0.65597445 -0.23301528 -1.4254584 -0.21145944 -0.27429944 -0.48709384 -0.42694354 0.36892176 0.2083681 0.34756562 -0.08049828 0.69872063 0.90041596 0.79107845 0.009017297 0.33675694 0.06446338 0.14719841 -0.06857541 -0.09977445 0.370898 -0.056412637 -0.36913708 1.668815 -0.5258531 -0.70338583 0.740521 -0.2423702 -0.57829916 0.17649585 0.6097513 -0.33798453 1.0152284 0.82714 0.6710184 -0.085341826 0.17791854 -0.79899377 -0.2560781 -0.15690884 0.18795113 -0.533753
感染 -0.51166254 -0.5959201 0.59040403 0.43644792 -0.08892954 -0.003571589 1.0375489 -1.114159 0.84727937 0.4265486 -2.6870713 -0.7548919 -0.8116374 -0.8943346 0.31350753 0.021663064 0.24713513 -0.36712435 -0.9539873 -0.5330609 1.1848179 0.82369614 0.16904557 -1.011266 1.6689041 -0.19504364 1.0022675 -0.5879876 1.4741887 0.240253 1.1450933 0.59852374 0.6914169 1.4887013 -0.2309298 -1.1785136 -2.088949 -0.35929114 -0.10935792 0.60966855 0.9205112 -1.1631932 1.0349857 -0.75038415 -0.37241876 0.46929982 0.20055439 -0.8261219 0.91275144 1.7929606 -0.041645333 -0.5835368 -1.6259241 -1.552579 -0.22405104 0.08677669 -0.6645351 -1.0242379 -0.29267135 0.34472317 -0.7069878 -1.3089663 -0.46980354 0.71110666 0.11340548 1.6397892 -0.1483943 1.9603434 0.77771163 -0.10480156 -0.1633296 1.7739935 -0.29473153 -1.6066617 0.5400668 0.7589687 -0.2652123 -0.14200552 0.56240034 0.07442242 0.33193827 0.81160605 -0.47845146 -0.2590921 0.16594712 -0.559171 0.15523434 -1.100974 0.6643731 1.0327657 0.34272382 0.08395895 0.48208803 -0.53556174 0.5876217 -0.86119723 -0.4473891 0.6548152 0.035741042 0.34668788
请问 0.1550447 0.048511863 -0.65183294 -0.7221681 -0.601634 0.16583148 0.087309495 0.39696336 0.22105125 -0.17274712 -0.2902013 -0.22385305 -1.202214 -0.43890697 -0.6163544 0.1918356 0.6831746 -1.0170872 -0.21398291 -0.391083 0.63640034 -0.6565553 0.24937652 0.10616869 -0.61783576 -0.57079667 0.18578963 -0.3272817 0.19344597 -0.028789805 -0.3138812 0.23813511 0.20655571 0.052921277 -0.07329501 -0.10758004 -0.0520555 -0.19459534 0.21210892 0.29572833 -0.5829808 0.41759807 0.3562228 0.2996006 -0.10473087 -0.51273835 0.75263405 -0.5485454 -0.52699816 0.6392468 -0.3860408 -0.30577177 -0.29077116 0.43423268 0.8726902 0.093374014 0.29895768 0.21551779 -0.38512257 0.40595737 0.154177 0.47856355 -0.08695417 -0.30316308 0.14997357 -0.19760936 -0.49714038 -0.29249555 -0.021971116 -0.75510603 0.29414567 -0.14980699 0.078008264 -0.5245744 -0.31321692 0.106965266 0.056010123 0.30201274 0.039569817 -0.10811466 0.61109924 -0.23902872 0.14265746 -0.6247544 0.060861763 -0.27744228 -0.04253787 -0.17894435 -0.33804345 0.08695495 0.050839186 0.3502984 -0.2444424 -0.45399883 -0.06891784 0.5396301 -0.12882626 0.28812376 0.07177819 -0.14395666
哪些 -0.095222205 0.8226213 0.33394033 -1.8210987 0.6469131 1.1249058 1.0331085 0.49587923 0.07340154 0.66721183 -0.5671196 -0.3148044 -0.27428672 0.5023264 -0.84676313 -0.13364944 -0.58618325 -0.41009682 0.59924215 0.087629005 0.4398018 0.26184043 -0.026513157 0.39831167 0.09422228 0.47285947 0.73948586 0.7396065 -1.410403 0.34749886 0.7583532 0.23764998 1.0245882 -0.42595842 -1.0884613 -0.7857824 -0.8336534 -0.24560581 0.5782076 -0.48863846 -0.32561815 -1.3018395 0.28936046 0.7355739 -0.16634238 -1.0677782 1.6829625 0.340536 0.21774165 0.44815224 0.62740797 -0.44312716 -0.53699374 -0.06129887 -1.2165109 0.79379576 0.3253691 -0.39826116 1.1979246 0.0052306782 -1.5327275 0.5784944 0.04640768 -0.54511034 0.09526558 0.22800544 0.082147926 0.24246986 -0.8865282 1.09651 0.8712956 1.0861613 -0.3211283 0.2830611 -0.09496981 -0.17173879 -0.32332036 -0.45327523 0.5898127 -0.34132496 0.33480257 0.6996469 -0.34106648 0.34303996 0.3305762 -0.18097806 -0.7775789 1.4237033 0.48392418 -0.50370085 1.3063301 0.31440192 0.8040596 0.63641775 -0.45754835 -0.3477494 -0.52866113 -0.7304433 0.18583569 -0.416575
打 -1.5112213 0.22280075 -0.62552184 -0.749199 -1.0004406 0.021052834 0.30564335 0.39038673 0.8505686 0.9673456 -1.3516705 0.87478966 -1.3673061 -0.36818293 0.9897091 0.45256716 -0.5303396 0.7319684 0.110894985 0.3322373 1.3571553 0.74167085 1.327581 0.20031002 -0.23421483 0.10309103 0.35672474 -0.09895147 0.545028 -0.7065548 -0.10077073 0.5852046 -0.1952678 -0.37108934 0.16686551 0.5511155 -1.2194401 1.0569693 0.18020976 0.9945334 0.67930764 0.50415206 -0.42125624 -0.6827577 0.6588177 0.5381944 -0.45307395 0.13683595 -0.1614634 1.2371998 -0.12385725 0.6941108 1.1903787 -0.1008804 0.76558715 -0.8021377 0.17279093 -0.7254099 0.20965803 -0.13631727 -0.19236511 0.7704404 0.48894572 1.1876382 0.97986203 1.6612581 1.2276977 0.57563365 0.035401657 -0.39904448 1.5259919 0.334324 -1.5214882 -1.4472544 1.467599 -0.836755 -0.30229944 -1.0713488 -0.42303327 -0.42222488 -1.0525368 0.8045391 -0.9993557 0.3182649 -0.47327042 -0.564701 -1.4535967 -0.85993147 -0.76328206 0.2436918 1.1523817 1.1743125 0.0022843613 -0.8902788 -0.4733704 -0.04532282 1.4280179 -0.30999213 0.6375845 -1.3890165
得 -0.2002891 0.13565636 0.55346704 -0.0651536 -0.34302992 -0.078963265 0.26394525 -0.33390698 0.13345736 0.014791437 -1.4405932 -0.38637972 -1.0498877 -0.12852922 0.21436192 0.1963829 0.18742462 -0.30338246 -0.69555336 0.10822685 0.8699338 -0.03556885 0.802628 0.0796841 0.3375461 -0.7551252 -0.082536995 -0.3728415 0.23964308 0.048549272 0.3227842 -0.045079254 0.19259262 -0.32780558 0.2634618 -0.52123725 -1.0393782 0.7879053 0.025395416 0.21708941 -0.2462747 -0.090355724 0.27673393 -0.31374806 -0.44822085 -0.2778987 0.13157304 -0.43370894 0.8307665 1.4634895 0.33783644 0.5979172 -1.3980501 -1.2268264 0.83829194 -0.4555784 -0.23666412 -0.4420649 -0.7630621 0.27814007 -0.45917347 -0.2541051 0.2211657 0.57390255 -0.33953378 0.17743297 -0.11150177 -0.14963003 0.19198556 -0.93691397 -0.19281131 1.0077474 -0.5291944 -1.5615681 0.5033004 0.73975235 -0.07076584 0.5899914 -0.019148983 0.15818411 0.5732337 0.032049574 -0.8083046 -0.682704 -0.240902 -0.3260482 0.07538207 -1.122017 0.22752745 0.09546353 -0.18851198 -0.3419965 0.3048381 -0.8478809 0.1514938 -0.6765634 -0.03208311 0.55068856 0.104855746 -0.32653198
血糖 0.5641792 0.3049341 -0.12698422 -1.6758894 -1.3288145 0.6468531 0.73925626 0.1092111 0.34918723 1.1086828 0.38570398 1.2993482 -1.1578403 -0.52367353 -0.39585423 -0.07188159 -0.39812574 -0.21224266 0.0035634772 -0.47259644 0.18636206 0.07485884 0.71302205 -0.115305774 -0.32039458 -0.98991644 0.12318983 -0.735676 0.7831165 0.4284393 -0.57702523 0.7697285 0.005173187 0.70607394 0.4536087 0.2935965 0.05355919 0.5110583 -0.15609232 0.8167914 -0.088850714 0.7855063 0.46642813 -0.39711013 0.79416674 0.1844554 0.6432516 0.04674182 -0.41972864 0.63093877 -0.5286757 0.10336665 0.012935302 0.9727767 1.6083288 0.087610394 0.41743556 -0.59552824 0.200234 0.87070525 -0.6991165 0.6482133 0.11589149 0.96587723 0.47682333 0.30184823 0.2255129 0.10829012 0.06091409 -0.19990215 0.59852725 0.054232284 -1.0905305 -1.1532044 0.5296482 -0.54498285 -0.0961106 -0.36451402 -0.6405769 -0.5344896 0.38709453 -0.7618421 -0.13472113 0.14293632 0.98987556 -0.09050761 -0.8502963 -0.44763222 -0.6894388 0.35903934 0.90601915 1.189351 -0.76117754 -0.5186383 -0.13328883 1.667085 0.14965585 0.050761126 0.10034436 -0.8489525
引起 0.61528593 -0.097280465 -0.17214863 -0.8385971 0.04802245 -0.11893078 0.061437912 0.27766585 0.3678265 -0.27046978 -0.5463637 -0.1632778 -0.32950073 -0.33576003 -0.97945046 -0.7429402 0.49770555 -0.8074865 -0.15338819 -0.8392109 0.55515575 -0.35363865 -0.03115673 -0.5303263 -0.0675945 -0.40812322 -0.6808025 -0.8014325 0.018128809 -0.06103656 -0.4846542 0.54711986 0.5300171 0.41307414 -0.19820075 -0.7330489 -0.40582195 -0.28908402 0.44724774 0.02447969 -0.05575431 -0.5588046 0.3302089 0.25268182 -0.8170383 -0.117643885 0.8940134 -0.11235998 0.2609158 1.2993844 -0.25570014 -0.76304346 -1.2467713 0.07345175 0.07451902 0.09840483 -0.36104593 -0.72677016 -0.8976283 0.03817395 -0.067386426 -0.22121811 0.008716485 -0.5791965 -0.38035592 0.0032118433 -0.8092124 0.9087192 0.40385747 -0.63382405 0.041229967 0.014655325 0.26099992 -0.4278003 -0.73502344 1.0978967 -0.3231911 0.9061004 0.3820314 0.25937128 0.26226595 0.34169903 -0.26191014 -1.2450732 0.6784619 0.379913 0.1770229 0.27041557 0.114982635 0.6788176 0.058478247 0.38094705 0.18885691 -0.19761539 -0.43950152 0.3326939 -0.5301175 0.26466972 -0.3048767 0.082303874
要 -0.7594373 0.11203839 0.45713922 -0.70139414 -0.9232303 0.4878145 0.8646162 -0.08085306 0.79926956 1.0069395 -0.42231944 0.308207 -0.34724918 -0.6660963 -0.036571782 -0.099055685 -0.47219533 0.49194327 -0.1979979 0.4354012 -0.09453796 0.14698009 0.3138711 -0.016947411 -0.16460186 0.7206417 -0.026687821 0.16223578 -0.2919127 -0.40036798 -0.10855433 0.53235453 -0.12786017 -0.5798932 0.18620937 -0.11397257 -0.34507245 0.3124532 0.054868985 0.49221444 0.2787678 -0.122690305 0.65635777 -0.3240552 0.027384387 -0.13862276 0.6257634 0.47028673 -0.4575058 1.4073522 0.5069521 -0.06789687 0.13463344 0.19169737 0.25091907 0.85787284 0.038629886 -0.1835611 0.47620025 0.37299213 -0.8898749 -0.41754645 -0.14335847 0.73248875 0.4821355 0.5271305 1.0162106 -0.027071035 -0.77877825 0.49055704 0.8963354 0.57942396 -0.40917525 -1.0574255 1.1084042 0.0076377983 -0.6070158 -0.82070667 -0.6660643 -0.39799637 -0.80625206 -0.057492465 -0.42837662 0.73597676 0.2523468 -0.112072445 -1.2140713 0.83662695 -0.07489075 0.28887558 0.3697387 1.124484 0.18152955 0.31972697 -0.16714826 0.6677278 0.42472976 -0.2230524 0.13430774 -0.68513906
胰岛素 -0.014177613 -0.048755556 -0.47195432 -1.0121026 -0.25496882 -0.25947994 1.1538798 -0.2357494 1.1780307 0.67073506 -0.2322752 1.3588716 -1.0227921 0.529318 -0.24140154 -0.3229389 -0.76424176 0.77138025 0.110813886 -0.026136745 0.5192954 0.61732304 0.56293935 0.4160947 -0.4979269 -0.35735106 -0.106758185 0.4592841 -0.0036383092 -1.0408134 0.04142767 1.3434286 0.30219948 0.54215103 0.14151831 0.44543624 0.076772936 -0.025892865 0.77522206 0.6470453 0.009267377 -0.12193432 -0.20938699 -0.18798654 0.52471197 0.3060757 -0.09011764 1.0667404 -0.8337486 0.8276639 0.2034368 0.24964203 0.8986703 0.8902135 1.4062866 -0.5564855 0.2201811 -1.2580254 -0.20582367 0.268826 0.39902738 1.2123812 -0.47024748 1.358392 0.59332556 0.5433679 0.3623175 0.5210344 -0.03338489 0.19159694 0.026477588 0.09962348 -0.9727613 -2.178346 1.0604969 -0.5717085 0.30213428 -0.9115699 -0.7308126 -0.49124742 -0.19565666 0.02000591 0.30491856 0.43642184 -0.5984479 0.1619795 -1.1378518 0.36720023 -0.48706374 0.47510198 0.4029568 0.94982 -0.34418058 -0.700934 0.50691074 1.6159836 0.43935883 -0.14553133 0.56909573 -1.1349585
乙肝疫苗 -1.4763985 -0.31667048 -0.5478668 -0.32630312 -0.56266105 0.47697294 1.6588274 -0.6730479 1.3275388 0.7602668 -1.7478331 0.8264712 -1.6278692 0.4627131 0.7961664 0.1711041 -1.2704989 1.2716334 0.16519952 0.29491034 1.2201551 1.449565 0.9410368 0.19726014 0.48843327 -0.029286033 0.7782846 0.63033694 0.8485189 -1.1815418 0.8095938 1.5531662 0.62342507 0.6469038 0.57675517 0.26273125 -0.43125504 -0.13198932 0.9514295 0.89069396 0.4713259 0.011207544 -0.16608994 -0.39333144 0.82713854 0.9160752 -0.2248 0.720748 -0.16759054 0.99338704 0.42352894 0.39717376 0.9589844 0.18390527 1.0419956 -0.7209334 0.42858702 -0.93365496 0.5935821 0.35463625 -0.49400508 1.3935659 -0.60823834 1.8557065 1.1803125 1.4202621 1.0646625 1.1007665 0.030301567 0.078968234 0.16545922 0.43131912 -1.6260806 -2.1182683 1.4203657 -1.7898797 0.34317607 -1.3776355 -0.72102016 -1.0913318 -0.29579276 0.79051614 0.008509478 0.9437569 -1.3276731 -0.114324875 -1.2684307 -0.52536416 -0.25207293 0.6021267 0.6484135 0.5916292 -0.6862304 -0.71625626 0.791605 0.7940082 1.5938293 -0.0011712221 0.48772514 -0.95492536
? 0.19779228 0.20691544 0.052707087 -0.8118807 -0.32529894 0.28399485 0.5297663 0.30869597 0.513589 -0.11989111 0.18258105 0.06215937 -0.17374544 -0.29852065 -0.7597173 -0.4156782 -0.003194916 -0.16460061 -0.36022028 0.20940083 0.6573419 -0.52574867 0.34548005 0.33145872 -0.6292459 0.18885987 0.20911984 -0.21288967 -0.6571657 -0.68085605 -0.25240517 0.3243092 -0.1216562 -0.15205872 -0.45318666 -0.06230045 -0.27999705 -0.03280676 0.6049639 -0.0010484933 -0.54964036 -0.56377 0.069971755 0.15635604 -0.3677839 -0.65021 0.47101042 0.14264204 -0.21565041 0.80170023 0.11517817 0.052422885 -0.012465818 -0.15126723 0.50568235 0.22357294 0.03946747 -0.34414777 0.056660827 -0.7860837 0.1511741 0.30904773 0.63700235 -0.033817012 0.18835846 -0.45088536 -0.21670708 0.13826475 0.10819606 -0.04444376 0.2999678 0.4211881 0.029677996 -0.96178836 0.30677852 0.17657171 -0.32595012 -0.08491644 -0.10000219 -0.10198595 0.01053174 0.2366006 -0.2296837 -0.5871737 0.009512895 0.25089693 -0.58459926 0.38005248 -0.053334393 -0.08803318 0.21452133 0.8631047 -0.0889302 -0.19998135 0.07681861 0.44574735 -0.6905724 0.22384137 -0.010008025 -0.37631434
是否 0.1250523 -0.30275548 -0.05051597 -0.4161177 -0.010956229 0.039847042 0.44755378 0.57506526 0.80837023 0.36207092 -0.8416897 -0.46665293 -1.1231077 -0.14921586 0.059616793 0.14428951 -0.14719695 -0.2856769 -0.42298627 0.27083334 0.07926967 0.45061406 0.5652064 -0.6007544 -0.10862862 0.25336522 0.7014349 -0.16419744 0.43607515 -0.048387226 0.78528494 0.15727337 0.04837786 -0.06487165 -0.11994232 -0.7766343 -0.44415846 0.3715971 -0.22864667 0.47856548 -0.041069105 -0.17736737 0.9440589 -0.3386638 0.3093391 -0.4449973 0.005182361 -0.39291617 -0.47507432 0.6968551 0.11797298 0.50396514 0.11856327 -0.70662004 0.31685078 0.05588818 -0.15885176 0.4512867 -0.15338878 0.043043654 -0.49835268 0.10586544 0.30328923 0.407018 0.25674623 0.13417847 -0.07189381 -0.03732205 0.117917106 -0.18870214 0.28606287 1.0097157 -0.7980966 -1.1754848 0.91754997 0.048389915 -0.3511805 -0.29933113 0.35670534 0.03153334 0.928684 -0.6207743 -0.2698698 0.49542484 -0.27282515 -0.1402401 -0.033485353 -0.6247515 -0.63043255 0.1853616 0.047256008 0.0063891076 0.4835128 -0.3429256 0.30552852 0.017932868 0.15756147 0.12758209 0.13070643 -0.030980226
怎样 0.5938546 0.15230359 0.052786108 -1.1945022 -0.5163737 0.32971367 0.778565 0.7780024 -0.093001 0.28204012 0.6154892 -0.13579206 -0.5110778 0.32937485 -0.5113597 -0.008352509 -0.15314952 -0.19197616 0.27870324 -0.13718499 -0.07316222 0.033329383 0.78664345 -0.09566127 -1.0565503 -0.061533995 0.013603926 -0.39069918 -0.51611805 0.8309681 -0.312084 0.7484281 0.33209476 -0.16447653 -0.34475264 -1.0713307 -0.020964436 -0.05970778 -0.04692999 0.15482 0.14238389 -0.14817634 0.70190144 0.13347623 -0.062482666 -0.36537912 0.62150496 -0.17156197 -0.82176095 0.49545488 -0.18415886 -0.051887713 -0.07074755 0.78153634 0.27755812 0.5253358 -0.13814482 -0.21401487 -0.6482894 0.72318673 -0.2850312 0.3590112 0.39417434 -0.22429027 0.0885213 -0.71400636 0.29661188 0.3080963 -0.2509033 -0.26836878 0.556933 0.23501614 -0.54541427 0.0657049 0.54247475 0.6595617 -0.36139762 0.014557274 0.22192755 0.2666924 0.44089493 -0.46561465 -0.2735564 -0.44813648 0.67268896 -0.36684132 -0.064983346 0.64453113 -0.027378364 0.4997115 -0.18817946 -0.04359422 0.37675875 -0.4689325 -0.38779616 0.46251756 -0.1322677 -0.12260413 -0.2719668 -0.16255434
多少 0.17726754 0.28094786 0.5466656 -1.54522 0.0148422625 1.2108086 1.1288018 0.5467518 0.31363702 1.9654329 -0.9206355 0.44835702 -1.6145751 0.15393206 0.017724115 0.49555764 -1.3998809 -0.1799459 0.3649175 0.0905563 -0.97079027 0.8531737 0.64828676 -0.31304657 -0.81645125 -0.21410328 1.2819642 0.047460333 0.34674624 1.1861538 0.2286459 1.3896219 -0.12257593 0.5565084 -0.19514872 -0.78821003 -1.31724 -0.032299858 -0.46015394 0.57245857 1.1471027 -0.35115516 1.8484697 -1.3555313 1.3199551 -0.10267708 0.30171615 0.8893622 -1.0897408 0.32900926 0.5630189 0.97107893 1.04565 -0.5381326 1.1783 0.53365815 0.39357686 -0.0828963 0.26688763 0.61031455 -1.3223847 -0.49581313 -0.5309321 0.83751047 -0.03709649 0.7155066 1.3615173 0.75057757 -0.16549025 -0.062234752 0.029867902 0.41743684 -0.90692896 0.10848447 1.7922386 -0.2821174 -0.51413333 -0.99006414 -0.61189467 -0.8480864 -0.7492321 0.08804174 -0.47553033 0.53319305 0.5554664 -0.34368792 0.07793313 0.36005548 -0.07607346 1.2370487 0.5519814 0.75490576 0.19713137 -0.43619174 -0.066295676 1.0082318 0.75726146 -0.9322506 -0.168135 -0.2037945
喝 -0.8763402 -0.46092606 -0.8515505 -0.60374635 -0.21708663 -0.14517407 -0.24374707 0.051717464 1.0886238 -0.6688278 -0.91066617 -0.2807112 -1.2634811 -0.98003954 -0.67421955 0.051091574 0.85956 -1.6268913 -0.8857274 0.549355 1.9295198 -1.1861027 0.13458519 1.1406187 -0.8317265 0.096237004 0.7559172 0.7980168 -0.53394115 -0.40080637 -0.012115898 0.399885 -0.23504077 -0.05584341 -0.89241374 0.5110464 -0.50661063 -1.5548679 0.8760976 1.110727 -0.96778226 0.2505805 -0.42406192 0.71533716 -0.3611334 -0.3876225 0.26370057 -1.3701116 -1.3032694 0.9377578 -0.08214675 -0.15524925 -0.08667794 0.13222297 0.56960905 -0.20556904 0.54120874 0.17001075 -1.4699582 -0.5538976 1.4662323 1.2369275 -0.36116147 -0.7425726 1.0555264 0.353699 -0.9606133 0.35570273 -0.08519792 -0.6106676 1.1995171 0.22337516 0.31740427 -0.73372275 0.17032373 0.21929477 0.037279937 -0.72429997 0.85130423 0.24274841 -0.77113754 0.6450403 0.6779833 -0.47346154 -0.8869929 -0.44257548 -1.260535 0.02057967 -0.32116643 0.6668415 0.016207963 0.81629586 0.37160185 -1.2520953 0.48541227 -0.0505998 0.06703038 0.92082036 -0.09231838 -0.6091764
转移 0.2974752 -0.13033482 0.692326 -1.3158036 -0.356878 0.6762805 2.134821 -0.3995235 1.2860444 -0.19075756 -1.1031587 -0.5607385 -0.3109274 0.080584764 0.2932542 -0.83788145 -0.7291814 -0.2693393 -0.8847915 0.28747335 1.3027483 -0.5480323 1.148741 0.037531406 -0.08801772 0.5962689 0.29365584 -0.38146988 -0.7641762 -0.5553866 -0.1298773 1.2873701 0.652901 -0.30303663 0.09827087 -1.1143919 -0.41467062 -0.41205665 1.1422313 -0.53139585 0.0023727848 -1.2142614 0.64964193 -0.53786033 -1.0417857 -0.20232435 0.64225006 0.1877548 0.47803217 2.4701326 0.57084906 0.4830344 -1.4535527 -0.3224571 -0.32772893 0.16197525 -0.077798285 -1.0049615 -0.20001182 -1.330608 -1.6632714 -0.23139301 1.3928735 -0.5342143 -0.88960207 -0.37909916 1.2585355 1.3954247 -0.16420043 -0.04581787 0.19359756 0.7750397 0.88896835 -0.4159755 0.46567437 -0.6935885 -0.044330887 0.38004515 -0.39667982 0.2641902 -0.19221753 1.4643232 -1.1690195 -1.8522955 0.34222016 0.50894797 -1.2177411 1.0053425 1.6084833 -0.034980673 -0.8387792 0.2712294 -0.5212002 -0.75931686 0.07676205 -0.26103255 -0.72706056 0.29612705 0.050952177 0.28251395
呢 0.1739524 0.37921903 0.2058905 -1.0846676 0.23128153 0.30224138 0.6863974 0.16549928 0.24138546 0.26765487 -0.1745794 0.214277 -0.3433498 0.51838404 -0.33348686 -0.18797511 -0.09708052 -0.16575195 -0.0052809855 -0.2251369 0.34238058 -0.17109857 0.16520698 -0.009288336 -0.085378624 -0.23179232 0.22619332 -0.12497792 -0.8205494 0.0850647 -0.12470299 0.42562833 0.3909216 -0.0076588425 -0.39053962 -0.41485545 -0.06645696 -0.20965193 0.539533 -0.07327495 -0.10949653 -0.27651212 0.028372401 0.20801422 -0.14719218 -0.36266792 0.6921897 0.44204324 0.28497624 0.5716423 0.18823062 0.2479662 -0.36220092 0.16409332 -0.27136278 -0.27995926 0.11017335 -0.6264977 0.3386413 -0.14185812 -0.72068197 0.50114363 0.5256395 -0.171842 -0.19643667 0.084896676 0.26319128 0.2720223 -0.049030624 0.3012114 0.32447332 0.26639175 0.0024102745 -0.18054898 -0.04852188 -0.13356875 0.030959051 -0.008884705 -0.1320429 0.07836734 0.17200217 0.58635324 -0.45587453 -0.55851465 0.32717884 0.06745612 -0.46444157 0.44575825 0.35217726 -0.072519094 0.33495343 0.45078012 0.15777677 -0.13279945 -0.20268147 0.26119435 -0.402617 -0.05266962 0.2874815 -0.22558437
人 -0.89719266 0.07346071 -0.23917755 -0.0015065746 0.8050965 -0.33530912 0.006972207 -0.394393 0.70699525 -0.64837015 -1.906693 -0.9452002 -1.047415 0.38696456 0.09908789 0.6107241 0.1036519 -0.5254404 -0.241137 -0.01998383 1.2775182 -0.24948703 0.04925821 -0.13064224 0.48833552 -0.21282801 0.7940024 0.57759315 0.27671236 -0.07295054 0.5217033 0.0870067 0.68662524 0.4567261 -0.31181806 -0.59142673 -0.89110005 -0.5703526 0.28050995 0.4950781 0.043585178 -0.032041285 -0.22114441 0.01607347 -0.17363927 0.12803547 -0.025876084 -0.6946951 0.45086914 0.92799616 0.3623796 -0.116614774 -0.61323583 -1.179392 -0.0141965225 -0.7589042 0.16052452 -0.38110453 -1.2053438 0.44639936 0.13100193 0.3986475 -0.21703906 0.012082573 0.38730747 0.6227048 -0.39633137 0.463878 0.039002165 -0.10212589 -0.024613703 0.6230777 -0.04842551 -0.5671656 -0.060761128 0.45680988 0.14736494 0.12832142 0.58042777 0.091395706 0.4025571 0.51721436 0.40141878 0.011720661 -0.55372787 -0.49294794 -0.19475175 -1.0171179 0.24178892 0.874123 -0.31860757 -0.49123892 0.5827509 -1.0781385 0.6628943 -0.6048527 -0.14410502 0.56128526 0.4803542 0.262507
需要 -0.4662659 0.04859917 0.40610528 -1.125283 -1.1658968 0.41389015 1.105963 -0.11487824 0.51791424 1.10065 -0.17746131 0.6722878 -0.5984926 -0.54589313 0.2663434 0.060971756 -0.85457134 0.40705082 -0.29668352 0.37957788 -0.09227866 0.18378294 0.43050143 0.26743627 -0.64433885 0.35782456 0.057226375 0.29772395 -0.44193113 0.0045856447 -0.21254204 1.0311991 0.12972586 -0.47820413 0.12760058 0.12355518 -0.34111467 0.3090832 0.040568855 0.5463018 0.31076646 0.027095638 0.75313705 -0.46940318 0.207708 0.16417077 0.34506956 0.71314275 -0.6266986 1.1720532 0.2292236 -0.036350768 0.26817647 0.74442625 0.63115054 0.88332814 0.066155955 -0.32777542 0.29525235 0.27752194 -0.6250463 -0.38254762 -0.1887659 0.674662 0.25660098 0.50277555 1.0154914 0.4850534 -0.64591455 0.2924508 0.76254815 0.36059782 -0.4830187 -0.5699294 1.109048 -0.20812799 -0.28648928 -0.8655182 -0.7616251 -0.32026565 -1.1137145 0.0936246 -0.44361213 0.50683814 0.19669813 -0.1551932 -1.2507812 0.8460574 -0.07108085 0.3145224 0.019149927 0.87963074 -0.036288325 -0.07338322 -0.1795372 0.678435 0.53920895 -0.67408216 0.1082448 -0.8204103
不会 0.88544947 -0.51707375 0.12449615 -0.00720355 0.7215157 -0.23698229 0.8285924 0.21740057 0.85331357 -0.22543585 -1.6305166 -1.0483661 -0.7325771 -0.130251 -0.2646883 0.07436908 0.22825965 -0.47030678 -0.5629849 -0.2537351 0.5498926 0.5776095 0.284122 -1.2882603 0.5686078 -0.3082015 0.813055 -0.70975757 0.7113595 -0.3819234 1.3002807 0.28582534 1.016191 0.71043414 -0.22408967 -1.706593 -1.000248 -0.14145885 -0.16507775 0.24242643 0.17650855 -1.1694943 1.0235444 0.07795432 -0.11534505 -0.30628848 0.5924981 -0.28777552 0.41763484 1.0462803 -0.0033503317 -0.34291276 -0.9014702 -0.95655423 -0.59882474 0.008832948 -0.71672815 0.05480688 -0.23472491 0.15423924 -0.828991 -0.48958296 0.25362968 0.20865944 -0.06624758 0.41761532 -0.63408756 0.77929133 0.85253364 -0.39925727 0.12867798 1.3466446 -0.8984974 -1.163269 0.33187494 0.3607957 -0.0071310047 0.2698134 0.8721991 0.16743603 1.7517451 -0.38445133 -0.6585553 -0.6225328 0.21635182 -0.14923404 0.56509805 -1.2100804 -0.15846844 0.18382937 0.33830333 -0.18981144 0.69784623 -0.62738764 0.43937665 -0.77915716 -0.41184002 0.23540059 -0.45312333 0.4144556
做 -0.57350314 -0.07151548 0.35536847 -1.1307976 -1.023956 0.5921815 0.7834515 -0.07441618 1.2131335 0.92926455 -1.0666187 -0.21824346 -0.94807494 -0.73908496 0.4494992 -0.120489486 -0.49008566 -0.9659188 -0.43544823 0.3531598 0.11905712 0.09888725 0.5423684 0.49969628 -0.57632643 0.6158084 0.44097555 0.14380753 -0.0922644 0.3203021 -0.30707082 0.5517335 -0.41403967 -0.75751513 0.04892828 0.27779874 -0.22117248 -0.14072576 0.18575823 0.5845857 -0.3735089 0.5480885 1.122445 -0.43703452 0.25262326 -0.32238534 0.33407426 -0.46367812 -0.8566399 1.2704939 0.67037606 0.71328306 -0.12544411 0.05503036 0.5265127 0.8301591 0.5886118 0.4254954 0.25735515 -0.59570247 -0.92924166 -0.27945882 -0.39669257 -0.16642313 0.12960054 0.2895803 0.98306775 -0.28650445 -0.8252285 0.22242765 0.78276676 0.42609432 0.5674545 -0.3997479 0.86514074 -0.5356609 -0.8016178 -0.58003455 -0.20164256 -0.16952729 -1.3042313 0.5311736 -0.1043854 0.71000797 -0.2780086 -0.13433862 -1.265081 0.8543855 -0.11040715 0.24498269 -0.31683087 0.96874547 -0.083884336 -0.024447698 0.058559723 0.59158784 0.81374454 -0.25505015 0.5276008 -0.4616315
型 -0.71731126 -0.26080304 0.26365998 -1.7152957 -1.5842725 1.1616917 -0.13319391 1.4743543 0.8507772 -0.31504756 0.19167346 0.24720652 -0.54927534 -1.3747659 -0.87671 -1.6327007 -0.6267159 -0.27150774 -0.7652581 1.2025048 0.32127383 0.7409983 0.1637863 -0.15877217 0.03474273 0.7027949 0.2806762 -0.853298 -0.98783296 0.9807987 -1.0409602 -0.5318711 -0.4659831 -0.3076698 -0.4160347 0.37394583 -0.8627671 0.22843361 1.3657004 0.37049896 -1.2195098 -0.14423707 -0.13142073 0.45059612 -0.30923742 -1.0692539 0.29357985 0.17060912 0.55448645 0.96503925 -0.6240577 -0.037256714 -0.97395957 -0.8834751 0.94181806 0.8815042 0.60804176 -0.7193064 0.7473956 -1.1057307 -0.35956842 0.8259001 1.285682 0.10881054 1.8351109 -1.0227058 -1.6867473 0.32119656 0.086281516 0.5540173 1.0643356 0.94106823 -1.429199 -1.0067703 1.1705197 0.16763243 -1.3102177 -1.3571923 0.1457416 -0.8494744 0.3646942 0.70758164 0.21637161 -0.31740358 -0.24315037 0.32252797 -0.7974308 0.111048356 -1.3402425 0.84372634 0.5050794 1.1214902 0.7749085 0.21325251 -0.32620284 0.93893063 -1.3169078 1.2677923 0.09603605 -0.2595545
检查 -0.8925078 0.46339232 0.94374555 -0.94667715 -1.1656675 0.8860802 0.8413434 -0.550569 0.22576864 1.6395667 -1.0023724 0.4613342 -0.8822372 -0.62409496 0.40535015 0.12447948 -0.75099814 -0.10696643 0.14992735 -0.5555819 -0.2797002 0.7035492 0.315485 0.0066649453 0.36062342 -0.4314161 0.36473814 -0.040502027 0.33860186 1.5433706 0.09741817 0.77172256 0.14077248 0.27717635 0.44628954 -0.061516766 -0.40370774 0.046510793 -0.5114535 0.60941845 0.21008414 0.61668044 1.1603549 -0.52196413 0.62182873 0.6602156 0.98123956 -0.021377275 0.08989917 0.4582693 0.41641986 0.08633621 -0.38946572 0.25004974 0.3063055 0.81959355 0.30503693 -0.13873403 0.63350314 0.90612376 -1.4835743 -0.123807244 -1.0322474 0.23398401 0.24950226 0.9762717 1.1173435 0.54052067 -0.79143786 0.24673235 0.6567284 0.56392044 -0.10606213 0.24328732 0.42985138 -0.68039864 -0.32137167 -0.67983824 -0.27624398 -0.63759255 -0.8376501 0.42230377 -0.11019416 1.0371586 0.6239615 -0.5540699 -0.823817 0.552761 0.18959352 0.2652352 1.055222 0.68800974 -0.07882153 0.33610848 -0.1966851 0.55995554 0.9293401 -0.06433533 0.20220348 -0.38886073
怎么回事 1.4579983 0.14092842 0.048894037 -1.4838854 0.02789349 0.5296489 0.79732925 0.067345805 -0.35985833 0.15855375 0.044162363 0.46740055 -0.47387624 0.00853764 -0.18075587 0.39687753 -0.23974897 -0.6844777 0.40977278 -0.008991144 0.22687596 0.18347849 0.4514083 -0.36260587 -0.041410666 -1.5069885 0.5075535 -0.7294106 0.21708415 0.5937354 -0.03873684 0.731071 0.8515843 0.70067966 0.039642993 -0.7900954 -0.18938728 -0.20625319 -0.31400678 0.49607208 0.049730256 -0.067550525 0.320001 -0.016987834 0.73698366 0.33045238 0.96775305 0.23268515 0.3683218 -0.14696209 -0.44232532 -0.4368951 -0.69256324 0.8788177 -0.0671437 0.09998343 0.1724074 -0.32719016 0.046776146 0.6814691 -1.1845497 0.33890662 0.049557004 -0.16239832 0.03341182 0.3948298 -0.32584965 0.52469474 0.7566476 -0.28783342 0.62504536 0.035274964 -0.87959194 0.48937687 -0.15574001 -0.30127162 0.5088625 0.02368634 0.16689214 -0.2591336 0.99581885 -0.40694776 -0.5541096 -1.0076644 0.8927139 -0.0013251585 0.30051517 -0.73046136 -0.012410956 -0.1349775 0.8822099 0.27090648 -0.011585886 -0.6937306 -0.1048451 0.027461339 0.10921509 -0.10861121 -1.0866944 -0.1701387
、 -0.3293105 -0.34124476 -0.6877595 -0.6275188 -0.28951743 -0.23439331 0.028698845 -0.0764261 -0.6023002 -1.0198345 -0.9680723 -0.7611775 -0.9368841 -0.6945178 -0.09228049 0.556212 0.8237101 -0.5797738 -0.3423544 -0.21982393 1.4137702 -0.6679003 0.51465744 0.14583257 -0.26090923 -0.31475493 -0.31718197 -0.12007451 0.06985892 0.9661279 -0.055871617 0.17272098 1.1564548 0.34025803 0.25575075 -0.2977716 -0.44734678 -1.0703185 0.4493059 0.4214979 0.33248603 0.43050274 -0.4068482 0.5416587 -0.23224787 0.86707115 0.6017766 -1.7123983 -0.08662381 0.4201026 -0.8895552 -0.5780153 -0.97233105 0.4590759 0.071682535 -0.15952186 1.2939446 0.5767552 -1.8058734 1.3705115 0.2040864 1.096807 -0.23280667 -1.3657756 0.89909184 -0.16348305 -0.9457938 1.0080518 0.3567234 -0.22311004 0.08323713 0.3620823 0.24988675 0.63622016 -1.1210229 0.13053416 0.24926353 -0.028140647 0.7821556 0.26131636 0.8929325 -0.1691687 0.56743723 -0.56320965 0.06848037 -0.6265631 0.09480429 0.24966173 0.59714603 0.91520804 0.16071206 -0.6069618 0.025768254 -0.80957216 0.7057082 -0.09525763 -0.23697317 1.1306701 -0.10006558 0.83703566
在 -0.9863594 -0.4707414 -0.264803 -0.05161931 0.16422908 0.21493499 0.44036186 -0.20302866 0.48062226 0.7849694 -0.94985265 -0.19564717 -0.67462516 0.028197994 0.45548323 0.50432825 0.2088939 0.34737214 0.26916096 -0.08133983 0.46922842 0.4382454 0.29210997 -0.14753465 0.19764091 0.40526724 0.5584548 0.46192318 0.5266352 0.54825926 0.6373467 0.32715875 0.384514 0.3894827 -0.30709183 -0.17657456 -0.5056699 -0.2723645 -0.33789608 0.69423175 0.83366203 0.32985038 0.15222798 -0.31360957 0.6997156 0.41740036 0.11484208 -0.5062491 -0.6364472 0.4381997 0.09110989 -0.14013073 0.41477296 0.00076366815 -0.101904154 -0.23740697 0.35459933 -0.15245861 -0.008162942 1.1125262 -0.38979757 0.0077524227 -0.5529397 0.50076354 0.8732519 0.99449104 0.6679222 0.40700564 -0.56696963 0.38232157 0.7476849 0.48422837 -0.3140305 -0.49489683 0.75119144 -0.23448792 -0.10876576 -1.0088103 0.09384583 -0.10223293 -0.1323713 -0.19544418 0.22609238 0.86116856 -0.2268929 -0.9998966 -0.66316944 0.14831828 0.1924933 0.58274895 0.6768202 0.14528605 0.4221345 -0.3692389 0.045211688 0.20597455 0.4927456 0.10071316 0.5049545 -0.09207023
还 -0.23891358 -0.30469227 0.31211427 -0.3909589 -0.44227695 0.14546792 1.2894441 -0.44865564 1.1163418 -0.24282517 -1.0066676 -0.46775913 -0.5025224 0.19486035 1.2742355 0.09027505 -0.7051694 -0.271192 -0.83693427 1.1557221 0.9995641 0.06441165 1.1241093 0.5047169 -0.30082673 0.18435258 0.89342076 -0.023837453 -0.19971582 -0.3210711 0.22091024 0.94292146 0.17428538 -0.5943573 0.1399311 -0.70494646 -0.5020529 -0.18552448 0.36708596 0.23780286 -0.40077394 -0.33567524 0.4459666 -0.6858473 0.061600536 0.075090885 -0.5711876 -0.55937225 0.26411158 1.6314775 0.45643255 0.8285325 -0.44244114 -0.5672382 0.42374137 -0.13987607 0.012032858 -0.31734416 -0.3820733 -0.9169808 -1.0328501 -0.019547971 0.9996724 0.14798908 0.053201374 0.27749214 0.75052464 0.3454007 0.062349677 -0.26819643 0.34627444 0.72051406 -0.3344087 -0.5709059 1.3408834 -0.93774104 0.23096122 -0.36552125 -0.06096338 0.32651237 0.0047182133 0.47223747 -0.59233356 -0.4114041 -0.58349335 -0.059531286 -1.0925641 -0.67183137 0.68124837 -0.38211587 -0.9166778 -0.41916555 -0.16983965 -1.3218136 0.35869527 -0.7058872 0.41926387 0.24201284 0.036652025 0.08233106
手术 -0.17643154 -0.26282015 0.19801387 -1.35664 -1.3986071 0.4289388 1.6002893 0.0933195 1.6118807 0.10076391 -0.4183529 -0.35117927 -0.5730984 -0.77994454 0.38339582 -0.32136437 -0.7023757 -0.7770613 -1.1495087 1.2263675 0.44939116 -0.35570738 1.087398 0.71352035 -1.2191601 1.351487 0.13256408 0.100139886 -0.57580775 -0.7774564 -0.46422902 1.2662214 -0.41256267 -1.3208674 0.07540124 -0.19420898 -0.2036569 0.17115127 0.63624954 0.12757191 -0.3553063 -0.56159747 1.1478225 -0.95770574 -0.3476819 -0.4812601 -0.1844183 -0.50905865 -0.94828176 2.575461 0.37129107 0.43198287 -0.30829892 -0.004377132 0.6126799 1.1973115 0.16034497 0.045053102 -0.4459462 -1.3956144 -0.6630778 0.0011341678 1.0197839 -0.29559124 -0.0038761804 -0.25247467 0.77361476 0.52358824 -0.5545176 0.06462051 0.39912978 0.6320186 0.5442 -1.1267542 1.2838155 -0.24831039 -0.640357 -0.387221 -0.115894444 0.19128217 -0.8714136 0.20553128 -0.33624077 -0.16701451 -0.27138728 0.41031215 -1.5660568 0.99662364 0.4009816 0.13202232 -1.3899404 0.5544321 -0.47624597 -0.4493219 0.06088985 0.20211045 0.0039202278 -0.1407229 0.075232 -0.087502785
是不是 0.91485125 0.119291864 0.22141656 -0.9876853 0.03828338 0.45182416 0.7308681 0.15878622 0.4168661 0.37691405 -0.79110414 -0.23639967 -0.2632891 -0.3948866 -0.2892046 -0.21389659 0.09301292 -0.15022293 0.14646663 0.010625113 0.33130568 0.5089892 0.383451 -0.49064797 0.20455065 -0.61831784 0.04698796 -0.5439091 0.5744385 -0.06273626 0.49618655 0.14332008 0.68352395 -0.03532205 0.29769054 -0.5441103 -0.27648702 0.69440746 -0.09525195 -0.09586137 0.02404647 -0.02580029 0.7578088 -0.101010375 0.30367947 -0.083727 0.8430638 0.3297499 0.62787795 0.7649067 0.25251034 -0.29120013 -0.82021636 0.12952468 -0.2094995 0.6139574 -0.3904355 -0.039528016 0.21128687 0.27459398 -1.2016352 -0.07237532 -0.00085976033 0.31751102 -0.4511842 0.18421678 0.067819335 0.18186928 0.013599132 -0.23683591 0.45016536 0.45442188 -0.7497319 -0.42221352 -0.09608825 -0.32529223 0.090465754 0.33722845 0.26963887 -0.010446186 0.75051486 -0.50534767 -0.5450979 -0.32124865 0.56403995 -0.026109945 0.083799876 -0.67009157 -0.4311881 -0.1591662 0.5506199 0.51286536 0.18259194 -0.27197152 0.006652701 -0.13502155 0.29161468 -0.34019485 -0.6370696 -0.25019717
抗体 -1.3436475 0.30253637 0.25526986 -0.47073784 -1.7320703 0.2148544 1.5751818 -0.90680623 -0.0846825 0.30745897 -1.4711206 0.8842726 -0.97978157 -0.25993586 1.4686078 0.32347372 -1.0882763 1.0573244 0.2614436 0.08538195 1.2380415 1.0156462 1.1164125 -0.11916891 1.0453225 -1.0975937 0.29336268 -0.44229433 0.8771257 0.6064267 0.3396288 1.6646962 1.1045454 0.9762097 1.1846482 -0.43544242 -0.44075122 -0.18277088 0.23221515 1.1096754 0.8118484 0.41327977 0.13638206 -0.41292146 0.7591688 2.334738 0.62979126 -0.041855235 0.9645559 0.10017194 -0.39389354 -0.3101678 -0.80372196 1.3278537 -0.13968024 0.12904052 0.50537616 -0.90550333 0.27432537 1.0309057 -1.5818303 1.1116123 -0.81455207 0.16313311 1.0518334 1.7403554 1.0735049 2.2521553 0.8387087 -0.48860326 0.5264504 0.44782946 -1.3503169 0.4014242 0.018647376 -1.8859509 0.5615255 -0.7439428 0.078881726 -0.8018703 0.33065677 1.2593615 -0.71651375 0.16508368 0.4214414 -0.32230467 -0.5417708 -1.1434375 0.7428026 0.5048163 1.2020081 0.045250747 -0.72820777 -0.6277087 0.4911097 -0.31171706 1.728248 0.74537015 -0.6783495 0.13035509
后 0.31716958 -0.2320888 -0.020841204 -0.5841911 -0.46712026 0.21544626 1.200139 -0.13021816 0.9515479 0.14435434 -0.46124637 -0.20352453 -0.4222039 -0.10740738 0.93227756 0.06608541 -0.8075912 0.38588375 -0.43508223 0.7588055 0.42730966 0.3623772 0.9368066 -0.27075738 -0.3146125 0.3931051 0.48947704 -0.30054015 0.022172287 -0.7300193 0.11271534 0.82895905 0.20909868 -0.5565672 0.5209299 -0.44354558 0.003983417 0.4710324 0.23661418 0.19985157 0.22258095 -0.00015741114 0.6238813 -0.6239701 0.0969052 0.0065463623 -0.24374186 0.1461065 -0.12923592 1.4476899 0.18212497 0.3358812 -0.10846955 0.20308828 0.4463708 0.2354033 0.19855903 -0.04602154 0.13790534 -0.58177006 -1.0791525 -0.3103321 0.6408944 0.47486573 0.05573227 0.17540833 0.91568696 0.14176011 0.034144584 -0.04251798 0.38076383 0.41286585 -0.27749416 -0.8124404 0.82432413 -0.75375277 -0.09303353 -0.30003154 -0.6151328 0.042992353 -0.0057942406 -0.0076001124 -0.79194313 -0.21487394 -0.203849 0.14534086 -0.9112113 -0.11759792 0.07104691 -0.10412216 -0.52551454 0.27798906 -0.2883982 -0.52011615 0.29227954 0.2626087 0.4048733 -0.30254167 0.17099264 -0.18610568
不能 -1.0703146 -0.02953604 -0.39272833 -0.63618004 0.06389541 0.40199906 0.12287439 0.38399082 0.9479571 -0.495526 -0.56012934 -0.6100306 -0.78558373 -0.1202344 -0.11938933 0.3372065 0.16968189 -0.58628833 -0.57317847 0.8128889 1.493939 -0.5838466 0.29081747 0.8105494 -0.7089101 -0.008442345 0.9498465 0.92882884 -1.0146384 -0.03832148 0.016463911 0.39672917 0.26219517 -0.4014782 -1.0300319 -0.14455445 -0.27572003 -0.9206324 0.5886024 0.86651146 -1.2040403 0.14604658 -0.4637922 0.43611327 0.015644612 -0.43016496 0.35475585 -0.5889169 -0.3689943 0.52487224 0.41142496 -0.28578353 0.07587029 -0.28934452 0.052748024 -0.070990175 0.16467267 0.08457809 -0.4631885 -0.5645268 0.3257976 1.1663374 -0.032342695 -0.4044489 0.87614733 -0.0445106 -0.4429289 0.049381495 -0.26005587 -0.4501528 1.2138591 0.14191382 -0.023867948 0.12853317 0.18540165 -0.28866607 0.22701965 -0.79295594 0.36155054 -0.06964791 -0.067524046 0.39666948 0.64377934 0.19282645 -0.9740447 -0.23598687 -1.0234525 -0.2196843 -0.24221233 -0.113125175 -0.09033822 0.10220419 0.3554537 -1.016249 0.2632115 -0.21397012 0.325432 0.26681167 0.030771708 -0.18593325
为什么 0.82467294 -0.179636 -0.19254234 -0.37281123 0.34916657 -0.047165662 0.4201643 0.19469206 0.47242078 -0.09674526 -0.46923518 -0.2563805 -0.47922087 -0.067491114 -0.11875844 0.21473591 0.013951429 -0.36924288 -0.16019437 0.20233813 0.6336343 0.3627292 0.378592 -0.42871305 -0.15579824 -0.5481728 0.46240216 -0.29172823 0.15196271 -0.25265902 0.55817366 0.17083587 0.45055097 0.25573707 -0.25675765 -0.57237244 -0.38252196 0.20484611 -0.15252514 0.4953571 -0.08350199 -0.38050374 0.1526352 0.16473664 0.34198514 -0.06423624 0.26044795 -0.102664 -0.08598234 0.41526195 -0.15739973 -0.30647084 -0.41586757 -0.26362655 -0.06597515 -0.15756297 -0.21048252 -0.16070484 -0.27703974 0.022198537 -0.29973853 0.038056474 0.29788682 0.39119697 0.05588077 0.26453322 -0.4060571 0.12793817 0.49756196 -0.41709176 0.47188595 0.43019804 -0.993705 -0.54645574 0.45371008 -0.04848163 0.21225864 -0.05990331 0.37594935 0.10980528 0.89501125 -0.51458234 -0.4876442 -0.49908352 0.019172395 -0.13996935 0.12351796 -0.97763014 -0.36693314 -0.1548883 0.34061274 0.06434834 0.27416292 -0.75965625 0.13692191 -0.43912226 -0.048749264 -0.028164197 -0.5132153 -0.2383529
该 0.4506467 0.3181714 -0.2632865 -1.2425116 -0.4505074 0.2052953 0.7508538 0.27720737 -0.11262446 0.35928828 0.1477061 0.22481951 -0.64150625 0.26488173 -0.44739306 0.011348021 0.07290917 0.08240092 0.11767759 -0.65501267 0.54168236 -0.6930708 0.7463926 -0.26930356 -0.43089393 -0.16215616 -0.53062737 -0.5582864 -0.53676176 0.22439897 -0.5543476 0.6261655 0.7036788 -0.28730667 0.3727699 -0.8043376 0.27815425 0.05837262 0.24622421 -0.010099481 0.32793832 0.16662791 0.1882223 0.045168206 -0.52562433 -0.18928751 1.0579948 -0.06671432 -0.12623267 1.2802936 -0.30767298 -0.008913324 -0.602296 1.0658245 0.24149364 -0.37847844 0.38087764 -0.42827633 -0.45319477 0.78071946 -0.73790306 0.5730551 0.6732848 -0.45457515 -0.38165557 -0.31815273 0.5731381 0.23671491 -0.30294102 -0.20165606 0.34856012 -0.114241324 0.08701792 -0.32782337 -0.5635134 0.18605074 -0.0045237937 0.6547382 -0.41773894 0.21848534 0.35598582 0.020838559 -0.6827988 -1.2581067 0.9741973 -0.08918378 -0.5161808 0.7689161 0.61628205 0.117065035 0.16810893 0.23436978 -0.23110604 -0.2323804 -0.51766765 0.757088 -0.18676001 -0.0061665815 0.392748 -0.12860423
不 0.2283917 -0.16277552 -0.5001408 -0.34517956 -0.5438508 -0.18448107 0.8178888 -0.006839213 0.7718412 0.16359366 -0.024031159 0.21764077 -0.66230685 -0.21169777 0.4792975 0.103085354 -0.28831688 -0.016711019 -0.18150437 0.34936908 0.49453396 0.045904588 0.9716658 -0.09566371 -0.60622424 0.084826 0.3406837 -0.22827257 0.45215392 -0.76375735 0.10657044 0.6643652 -0.083485045 -0.12742388 0.26669502 -0.16591619 0.15006727 0.37841526 0.050881177 0.35171372 -0.021777913 0.12552308 0.43189913 -0.5544376 0.39879137 0.096501246 -0.48349914 -0.12874149 -0.5479065 1.0057209 -0.19986759 0.27803144 0.32614493 0.5765926 0.736875 -0.15608555 0.030860297 0.0061768247 -0.18954761 -0.040928375 0.035566658 0.18079843 0.45058534 0.66660994 0.06355423 0.21411072 0.7927123 0.12328014 0.13722737 -0.41141492 0.24356546 0.30761343 -0.240957 -1.2563963 0.8308132 -0.36985672 -0.06320987 -0.18296888 -0.3630108 0.088047534 0.12126088 -0.42758852 -0.31803125 -0.015940296 -0.1143535 0.17194465 -0.7030325 -0.35791862 -0.15922144 -0.035522927 -0.27891454 0.43844658 -0.6497195 -0.6629947 0.13975759 0.6391916 0.28387907 -0.1268906 0.21509613 -0.49213246
乳腺 0.7698101 -0.23206966 -0.19535413 -0.6312015 0.023648994 -0.06523293 1.8405137 0.49212363 1.5752889 -0.7427586 -2.3296883 -0.88597447 0.5371523 -0.4792082 -1.0727496 -0.521444 0.9298746 -0.0817169 0.492101 -0.6745208 1.8573753 0.21272181 -0.14024536 -0.63232046 -0.07421865 0.36973214 -0.1852834 -0.71126425 0.50769275 -2.1280904 0.26402676 0.938546 1.4265597 0.12282672 0.62280893 -0.76284933 -0.24380203 -0.0051788655 0.871445 -0.19494511 0.23848201 -1.9819826 1.1791348 -0.5125915 -0.5171658 0.832347 1.3110241 0.54860634 0.76710224 1.6507106 0.5998748 -1.1332141 -1.1173524 0.9079985 -1.319742 0.99056107 -0.93134093 -0.62059957 0.20753054 -0.9895234 -0.5664782 0.38376647 -0.1334459 -0.27204207 -1.1263022 0.067042165 -0.5195074 2.6347454 0.6630672 -0.5489461 0.03843156 0.20226726 0.67360866 -0.92001027 -1.1128337 -0.6102701 -0.13907492 1.3004377 0.973037 -0.13986285 0.04789497 0.6519509 -0.025627265 -2.4189622 0.60819995 0.39629135 0.2721862 -0.08015211 0.44185778 1.1555305 0.5599216 1.1104311 -0.4846053 -0.643263 0.5636638 -0.88404137 0.79682875 -0.63385224 -1.5746098 0.6950055
用 -0.5250046 0.22928926 -0.2970804 -1.0364285 -0.40643904 -0.12038912 0.48493165 0.31410563 0.43133682 0.06450467 -0.09062195 0.42435768 -0.5131785 -0.037700683 0.13111751 0.05149952 0.030793551 -0.041687377 -0.15717275 0.30214766 0.94197154 -0.37786427 0.66059923 0.7155056 -0.8972253 0.0540049 0.12800618 0.19049105 -0.7640924 -0.31669563 -0.29802382 0.4903594 -0.0842984 -0.41327566 -0.43509904 0.2619128 -0.38923877 0.066622056 0.53722525 0.35018712 -0.0049910475 0.13484897 -0.3498807 0.14321232 -0.06310293 -0.07542829 0.06681858 -0.03918554 -0.69298065 0.68427134 -0.21862325 0.34889296 0.4029289 0.62227076 0.22010034 -0.20136133 0.30337697 -0.47512928 -0.33324668 -0.32371143 0.3113775 0.7277737 0.33800027 -0.12854293 0.32626852 0.31047833 0.62320054 0.35323682 -0.13063341 -0.058867864 0.81271654 -0.05427616 0.041464668 -0.31607524 0.50637937 -0.054857004 -0.114081025 -0.55036527 -0.084075406 0.24403897 -0.7647571 0.66280246 -0.24240176 -0.3876661 -0.117402084 -0.37804985 -1.0772544 0.5687624 0.06256085 0.07578346 0.11211441 0.6507168 0.16904587 -0.63889897 -0.30927342 0.0876957 0.026657935 0.028425628 0.28344256 -0.73808795
原因 0.87731695 0.41010806 0.38155037 -1.2193877 0.2086541 0.19561172 0.2637937 0.016476024 -0.014476083 0.06261766 -0.44868153 0.3571018 -0.25203237 0.2258841 -0.7907204 0.07622468 0.08606584 -0.7847923 0.5596415 -1.0400819 0.28611413 -0.11483416 0.02066183 -0.58812463 0.18621275 -1.4903066 0.2471483 -0.7631534 -0.022093685 0.61906046 -0.43334073 0.52631307 0.7729214 1.041173 -0.2451128 -0.6633828 -0.24424139 -0.7113748 0.051530205 0.47960904 -0.010275771 0.013309154 0.0591225 0.40560687 0.1058019 0.21487774 1.4876131 0.64061993 0.51448023 -0.059484266 -0.04576951 -0.52212274 -0.55365354 0.6170682 -0.37488708 -0.33975866 -0.07161119 -0.7362231 0.0005925036 0.6685117 -0.7084352 0.3315628 -0.399042 -0.42614344 -0.010767002 0.250567 -0.12543713 0.472072 0.6033653 -0.058167703 0.8060343 -0.22703977 -0.20587689 0.52111983 -0.5080455 0.25457108 0.24340633 0.19427484 0.11848985 -0.31768575 0.3002191 0.55880356 -0.25507793 -1.181172 1.0124328 -0.17901069 0.17701297 -0.36398068 -0.05489704 0.35820746 1.1444557 0.8902762 0.27110395 -0.45957842 -0.004025303 0.3304141 -0.08444076 0.1170838 -0.43511572 -0.3218895
早期 0.20554136 0.23833786 0.760702 -1.2214332 0.13027011 0.7079345 1.131417 -0.022034125 0.8325443 0.21334045 -0.9181914 -0.5192899 -0.028524632 -0.14879031 -0.45736736 -0.5915325 -0.32276148 -0.4101651 -0.26271376 0.015230186 0.49804094 0.11155393 0.20674066 -0.08706595 0.2416878 0.15229824 0.30815545 -0.10504247 -0.8660945 -0.316336 0.14562666 0.43892637 0.55417037 -0.28013366 -0.44935495 -0.5613463 -0.64629334 -0.110260956 0.63931394 -0.34009042 -0.47518292 -0.9520836 0.6219078 0.30822858 -0.55074644 -0.5057421 1.0543498 0.5284523 0.6441706 1.2857927 0.7498259 -0.1469895 -1.0540795 -0.60443753 -0.7153773 0.53568953 -0.19723527 -0.46996722 0.7206056 -0.62800306 -1.4625467 -0.2623373 0.3102707 -0.27715826 -0.36985722 0.15487133 0.26086146 0.6339621 -0.37232447 0.49789318 0.37537384 0.8506262 0.41982126 -0.26128986 0.056620404 -0.20537011 -0.5129566 -0.047650494 0.001969718 -0.20872249 -0.13618927 0.9755092 -0.6809655 -0.40682054 0.11654741 0.3005739 -0.7953362 0.99860346 0.5171045 -0.23841444 0.3730011 0.6670957 0.34093672 0.32437423 -0.12891503 -0.102037385 -0.5538617 0.019363748 0.05874061 -0.28637302
活多久 -0.25528717 -0.18857943 0.46785438 -1.1102192 0.19601905 0.46714625 1.1112281 -0.26033306 1.5352906 -0.18996313 -1.3903762 -0.66830677 -0.8015737 0.31962427 0.80727935 -0.092555724 -0.4587504 -0.93585443 -1.1386623 0.9126427 1.4563649 -0.4014403 1.1567864 0.646753 -0.2670136 0.26661634 1.3209194 0.012534088 -0.7847173 -0.30362937 0.13140723 0.7983844 0.10585401 -0.85434693 -0.67580396 -1.1079586 -0.71190137 -0.58598626 0.7675015 0.55625653 -0.70426196 -0.523905 0.5413258 -0.31550947 -0.15760365 -0.6040052 -0.11507968 -0.92054 0.13533384 1.8191793 0.7091531 1.2077007 -0.78437257 -1.1782943 0.14290735 -0.51522547 -0.029138502 -0.32223296 -0.60369575 -1.2442979 -1.1702806 0.42578718 1.4124233 -0.22328414 -0.38529044 0.033870626 0.46383578 0.37776712 0.13563606 -0.03061018 0.5007478 0.86922693 0.1607339 -0.61142474 0.9161218 -0.41430846 -0.16341357 -0.12785679 0.0906941 0.62753093 0.055894405 0.990768 -0.56620705 -0.47506484 -0.41818848 -0.07958575 -1.4312139 -0.590958 0.80311936 -0.21321456 -1.0133675 -0.33647317 0.46145007 -1.4210993 0.42460167 -0.71177477 -0.2287219 0.49126688 0.35679013 -0.029957933
注意 -0.897785 0.4271783 0.25760818 -1.8563071 -0.28286016 0.40518343 0.66454506 0.115982555 1.0509343 1.1555346 -1.0655476 -0.04188044 -0.48145497 0.5749894 -0.94722927 -0.32173014 0.31122237 -0.14685531 0.8948647 -0.4748346 0.31932482 -0.2349445 0.30759865 0.5728511 -0.534064 -0.078730084 -0.4787876 0.102836154 -1.1344568 0.96421844 -0.9340645 0.32680863 0.021964692 -0.30482966 -0.445897 -0.1696071 0.19759895 -0.7413256 0.3861636 1.0799906 -0.17425844 0.63641423 -0.119815014 0.25837475 0.08358626 -0.28815585 1.9553884 0.44891217 -0.85960525 0.56834733 0.9144427 0.0059917783 0.12878971 0.48411623 -0.44157314 -0.0990328 0.4522805 -0.89938945 0.48456535 0.8444749 -1.3691998 0.40629125 -0.8304251 -0.6773968 0.5283983 0.63559586 0.92914534 -0.12090286 -1.0657359 0.5701057 1.6800536 0.10533501 0.37664756 -0.10873915 0.21852078 -0.17545177 -0.6828319 -0.7343546 -0.02161199 -0.5276255 -1.240981 0.6279996 0.15116286 0.24163668 0.52576923 -0.53542846 -1.3572248 1.9734462 0.10750078 0.6958483 1.632671 1.6463914 0.7122688 0.12516263 -0.55070436 1.3991688 0.6000848 0.1523359 0.81943697 -0.46126032
。 -0.13926099 0.29754165 -0.20344651 -0.8428505 -0.6108121 0.4329432 0.69857174 -0.05531575 -0.10037778 0.5381297 -0.34429866 0.13475646 -1.1657106 -0.0015812942 0.18127802 0.51919264 0.22944643 -0.50376105 -0.09255957 -0.6400798 0.21444097 -0.3191166 0.33697736 0.08412989 -0.19341497 -0.81311405 0.44722617 -0.2738044 0.11986902 0.8175653 -0.14133331 0.48546603 0.3928409 0.39456087 0.1429112 -0.2158853 -0.10172286 -0.01612405 -0.039870594 0.22283334 0.018911337 0.70659536 0.4172723 -0.026852682 0.2914087 -0.052339945 0.64195424 -0.37732238 -0.18944995 0.3414517 -0.41696677 0.09604418 -0.37790635 0.52839094 0.5674296 -0.02149175 0.40763667 -0.1143251 -0.037389126 0.8807404 -0.45727432 0.35017568 -0.1332375 -0.13159071 -0.0073025054 0.3069711 0.43037936 0.0071663815 -0.27109665 -0.24712366 0.15423824 0.005440949 0.15084611 0.00057697046 -0.21946397 -0.30412585 0.28144267 -0.1042219 -0.36207297 -0.1170439 0.35092723 0.07454895 -0.0044353735 -0.25673994 0.51246786 -0.58053195 -0.2805606 0.12794974 0.30986625 0.013642253 0.18759546 0.10029248 -0.26702243 -0.34349865 -0.20266418 0.47098106 -0.12078256 0.14171489 0.36768422 -0.05176287
么 -0.17105986 -0.28341827 -0.23833013 -0.31075686 0.14037761 0.22941665 0.5238078 0.22031377 0.57187814 -0.2951062 -0.76137495 -0.8010757 -0.44894052 -0.3266009 -0.012237847 0.23064995 0.05119338 -0.3354671 -0.36843672 0.7183874 0.612587 0.088981785 0.1354638 0.018827353 -0.14692359 0.40128848 0.65142953 0.3897614 -0.023864647 -0.10597271 0.57715374 0.15442201 0.26074228 -0.15443854 -0.25611314 -0.50276124 -0.22453585 -0.4763693 0.18703176 0.3060458 -0.25423965 -0.28593922 0.37442943 -0.037112888 0.14313552 -0.14091426 0.1884785 -0.5494422 -0.26046073 0.33125743 0.14224663 -0.26301318 -0.14182936 -0.22957054 -0.46759796 0.551004 0.09755649 0.46091697 -0.13032646 -0.22246072 -0.30246893 0.35771495 -0.022740036 -0.22021124 0.41846183 0.14710197 -0.21538922 0.3776208 0.05967287 0.0062778844 0.4503426 0.6038333 -0.16712874 -0.03887915 0.2601258 -0.2545346 -0.03537099 -0.5740458 0.6111829 0.007118035 0.4486007 -0.17464808 0.22501203 0.30017957 -0.34826937 -0.04299 -0.21125033 -0.12652415 -0.11513261 0.14014497 -0.08527434 0.01996568 0.24992481 -0.31488797 0.38569015 -0.32860902 0.15599872 0.05347993 -0.297386 0.26628923
晚期 0.41758722 0.08709934 0.4591532 -1.2106047 -0.061829768 0.44566095 1.394523 -0.16716008 0.8422771 -0.24137071 -0.70246553 -0.47223455 -0.12758313 0.16824368 0.13930388 -0.3759343 -0.4135207 -0.37252593 -0.6933425 0.41825038 1.0343876 -0.50553167 0.7543643 0.29507864 -0.22245182 0.06380224 0.3633649 -0.24929427 -1.0731264 -0.5699728 -0.15944093 0.8050022 0.5417468 -0.5583477 -0.08042312 -0.8016022 -0.26788092 -0.20395845 0.79848164 -0.2520883 -0.5335265 -0.7023787 0.39664972 -0.012262924 -0.69477564 -0.44216928 0.6263834 0.10409925 0.51812816 1.7377008 0.49964625 0.2996114 -1.1220398 -0.247098 -0.15724218 0.017269913 0.06271095 -0.61026996 0.055526298 -0.9944494 -1.3592875 -0.005085291 1.0552753 -0.47528794 -0.54303604 -0.10757902 0.6022192 0.5400531 -0.07472114 0.0071801986 0.23092973 0.554506 0.5701611 -0.34919846 0.12724055 -0.5112035 -0.06620791 0.21666586 -0.23100802 0.2380232 0.058466807 0.9589068 -0.87990457 -1.2632338 0.12790923 0.36931396 -1.1253887 0.5804924 1.0177811 -0.42550454 -0.36694396 0.19037677 -0.07844304 -0.47543475 -0.055447347 -0.17589882 -0.5088859 0.16058624 0.11081421 0.0102259945
妊娠 -0.30503455 0.14627549 0.0011371812 -0.91721505 -0.2512674 0.36239532 0.074942686 0.28949514 0.29488036 0.24782847 -0.34683818 0.13933308 -0.64131653 -0.40999392 -0.64015585 -0.1767918 0.058958247 -0.45174757 -0.26089287 0.07163814 0.4598776 -0.45230144 0.009787871 0.22627948 -0.32284868 -0.17437613 0.18618284 0.06675561 -0.48424065 0.1738889 -0.2284931 0.060662102 0.03547095 -0.008027388 -0.444314 0.11256284 -0.53515023 -0.14979331 0.20681454 0.31326118 -0.5403066 0.14418623 0.034127075 0.261191 -0.07198269 -0.53614587 0.6915411 -0.002893048 -0.27246204 0.6060594 -0.0030782078 -0.048835024 0.018422639 -0.15274294 0.5557897 0.04569168 0.3215743 -0.18122907 0.043922737 -0.030878624 0.016014883 0.42714855 -0.2017381 -0.16616441 0.58703965 0.07585677 -0.31558052 -0.0088816285 -0.28378454 0.04844955 0.5557768 0.366384 -0.084422395 -0.6255901 0.095020056 0.09923818 -0.2826531 -0.35122296 -0.022916308 -0.30280033 -0.07708763 0.18943775 0.14953797 0.12742832 -0.07318329 -0.037698492 -0.62232 0.40766641 -0.34255117 0.026316838 0.69766253 0.69896793 0.25183547 -0.06401696 -0.073041804 0.5490392 -0.30620822 0.29894224 0.39145103 -0.42018303
方法 0.17666332 0.6696997 0.5793869 -1.4616408 -0.43636748 0.6874162 0.976243 0.5107058 -0.039186087 0.21780403 0.13802718 0.056060698 -0.021030515 0.48049197 -0.76928705 -0.49644342 -0.7390732 -0.118451014 0.5060203 -0.56328666 0.15640126 0.29866531 0.45828387 0.13180247 -0.49097016 -0.078761704 0.013379815 -0.057707503 -1.1434665 0.7149288 -0.38069555 0.9537007 0.54121715 0.00057013455 -0.4108307 -0.98258454 -0.31293666 -0.51592416 0.6751972 -0.34649548 -0.055561986 -0.77428085 0.42250758 0.57825375 -0.6462195 -0.1407889 1.1298283 0.6326916 -0.03480848 0.44219837 0.26930058 -0.21164414 -0.33320045 0.8643011 -0.4951241 0.6901141 -0.28271943 -0.7885181 -0.041975327 0.23531458 -0.54462683 0.6293534 0.040331718 -0.5429678 -0.17814687 -0.5760595 0.5660866 1.040176 -0.36588448 0.16658287 0.56018406 -0.0014310111 -0.13630745 0.8767059 0.035904888 0.43272498 -0.36334193 0.006975995 0.14705598 -0.070657425 -0.46384412 1.0722132 -0.33300245 -0.67690563 0.71651965 -0.023781067 -0.43028235 1.22505 0.40373924 0.5100556 0.14806363 0.3090122 0.32252038 -0.010997226 -0.48407114 0.21388252 -0.16151114 -0.27048633 -0.197509 -0.4813294
饮食 -0.621753 0.45394802 -0.37283105 -1.7829617 0.06774771 0.437525 0.2506251 0.4721869 0.40959945 0.7642713 -0.39985022 0.22142406 -0.6216893 0.2811079 -1.3708341 -0.06423345 0.32921776 -0.24010621 0.68075293 -0.4536349 0.41330406 -0.65165734 -0.0702754 0.2308281 -0.3038865 0.44644976 -0.4327754 0.34488454 -0.89258295 0.42923936 -0.4970748 0.17953385 0.5246928 -0.27787906 -0.4818628 -0.3219079 -0.14560162 -0.63331544 0.45071694 0.51843333 0.12778065 -0.05602339 -0.2370064 0.32596186 -0.14420734 -0.6810269 1.8285486 0.028248034 -0.67660266 0.87336504 0.34491223 -0.38550514 -0.012293623 0.6279708 -0.30846056 -0.04165041 0.74368924 -0.5256296 0.05652453 1.0319755 -0.7909623 0.6988086 -0.23779367 -0.5216452 0.46140438 0.24761033 0.1205538 -0.119259164 -1.0114391 0.7253798 1.2270924 0.06843886 0.1401207 -0.41892785 -0.23226523 0.5000523 -0.54905856 -0.3171724 0.045834735 -0.3409859 -0.21085955 0.11656415 0.09891466 -0.011200829 0.72562605 -0.4783765 -1.0302545 1.6637918 0.23909299 0.6083614 1.1732451 1.0138795 0.635921 0.22419773 -0.5872789 1.1564845 -0.15296364 -0.04237446 0.64172536 -0.29270324
怀孕 -0.7480202 0.018053154 -0.15998448 -0.24451944 -0.7215018 0.34435156 0.032793485 -0.016644398 0.599631 0.53247887 -0.8165311 0.16404851 -1.126713 -0.47716162 -0.092386276 0.10389528 -0.20653296 -0.22922342 -0.23974086 -0.13792112 0.6175933 0.16487296 0.54302984 0.26852733 -0.030764837 0.009682508 0.41242886 0.020375839 0.40277544 -0.24584901 0.21295218 0.14410177 -0.1807042 -0.09922786 0.03853471 0.25736323 -0.5946483 0.0990067 0.11238129 0.57460004 -0.35730934 0.32069516 0.06157971 0.09059636 0.109822795 -0.24544641 0.2468436 -0.42082834 -0.4285196 0.75076437 0.044192538 0.3665453 0.4087343 -0.3202149 1.0548614 -0.219111 0.38322285 0.13738638 0.102877386 0.29456905 -0.050637554 0.5223852 -0.18784538 0.574244 0.8624678 0.41647923 -0.011903527 -0.38783297 -0.26376843 -0.17483668 0.61441237 0.5025114 -0.79767334 -1.3956606 0.67426366 -0.30949658 -0.3223158 -0.53850317 -0.21657594 -0.48623693 -0.11880602 0.042246073 -0.08646974 0.64725494 -0.45898306 -0.32501063 -0.9203075 -0.25408748 -0.6279906 0.019805476 0.8161384 0.6075061 -0.07104076 -0.191966 0.20371698 0.52179754 0.43495 0.36958486 0.5592737 -0.90859437
药 -0.72267044 0.47924566 -0.4657476 -1.0490859 -0.03334187 -0.038703814 0.6172492 0.276358 0.3232824 -0.21034464 -0.16418937 0.10763057 -0.68718 0.5783391 -0.5154047 0.5019008 0.023981059 0.24978335 0.13663307 -0.0603622 1.0026222 -0.6718658 0.2955797 0.6965343 -0.83762497 -0.61681926 0.086290844 0.6887777 -1.2316294 0.09068857 -0.45487282 0.6896659 0.6571528 0.10277698 -0.4939152 -0.049374085 0.1425188 -0.61134124 0.6232061 0.48357448 -0.47868234 0.4499822 -0.80517316 0.5748318 -0.08101151 -0.09714957 0.8632874 0.54618 -0.44506007 0.23859666 0.018651795 -0.5098393 0.30238175 0.9444827 -0.05148104 -0.40173072 0.32358557 -0.67429054 -0.31032345 0.42078137 0.38933724 1.2541506 -0.40042603 -0.33974922 0.5808218 0.12734218 0.21083899 0.3377757 -0.4667064 -0.1732671 0.7903341 -0.30699843 0.30097562 0.064924665 -0.33498743 -0.14289528 0.46287134 -0.5336536 -0.21030962 -0.18821372 -0.33573434 0.528804 0.4185507 -0.38502744 -0.22422324 -0.2904361 -0.8680569 0.9570443 0.16277246 0.06160062 0.37043738 0.46792808 0.022835178 -0.64218223 -0.1371233 0.69057816 0.0072573093 -0.009600916 0.44841495 -0.42569497
病人 -0.4610717 -0.037359104 -0.4566717 -0.5919768 0.0270773 -0.042863708 0.08541976 0.11166685 0.46374276 -0.21881261 -0.55497134 -0.25197825 -0.5900186 -0.17629229 -0.05852577 0.087498985 0.22459522 -0.3983144 -0.19794005 0.2710201 0.7434938 -0.51152784 0.194612 0.33759394 -0.288564 0.078837186 0.04390954 0.3566861 -0.40215343 0.0013334601 -0.08126158 0.3452788 0.25398433 -0.22347437 -0.1753335 -0.20270419 -0.049921907 -0.47245046 0.31040162 0.3249767 -0.31768274 0.19211331 -0.03393244 0.024716185 -0.19747335 -0.080386885 0.33397132 -0.4445312 -0.19596806 0.7021872 0.15230416 -0.20883006 -0.25880763 0.11633581 0.052287344 -0.040881757 0.32134122 -0.02939714 -0.5879578 -0.12281415 -0.023823168 0.54175544 -0.15423349 -0.47792423 0.32334104 0.2926921 -0.086404346 0.31451532 -0.24170047 -0.29188946 0.49933353 0.10389356 0.42039788 -0.076235846 -0.28639746 0.04075059 0.07968126 -0.15959051 0.30194706 0.090678595 -0.04918658 0.2613384 0.23808998 -0.080265366 -0.2540059 -0.006061593 -0.5960247 0.3954542 0.19474868 0.17822522 0.016564263 0.10434085 0.14921594 -0.3905718 -0.060782038 0.16813746 0.22068895 0.15916935 0.21868616 0.102417655
被 -0.3078131 -0.8467142 0.010135599 0.7257131 -0.16226393 -0.32614833 0.77264154 -0.66798913 0.4928194 -0.45711648 -2.0751972 -1.1276845 -0.9175313 -0.72605574 0.5946532 0.44148198 0.1957213 -0.28896892 -0.8363882 0.07224857 1.1354948 0.4314379 0.34748864 -0.6858135 0.8743703 0.18742809 0.94999325 -0.26672858 1.1371945 0.12320563 1.2632139 0.32055393 0.8696661 0.9746865 0.05230279 -1.0351915 -1.3476619 -0.7587816 0.02189377 0.51819456 0.6578638 -0.8050694 0.70993656 -0.25484067 -0.1435361 0.5487728 -0.07507717 -1.284995 0.29724997 1.2223049 -0.33432788 -0.42458305 -1.1193753 -0.9207801 -0.32124996 0.017133113 0.032007564 0.0036038235 -0.7682724 0.47783148 -0.3103532 -0.48203197 -0.15800737 0.12209533 0.6340724 0.8369766 -0.30185154 1.2823081 0.6951763 -0.1882951 -0.052464243 1.541244 -0.48306078 -1.050561 0.56512237 0.119670935 -0.0007704369 -0.37044513 0.8614995 0.10539481 0.972463 0.21340656 -0.23799177 -0.27692735 -0.19240385 -0.69378 0.13242733 -1.1379148 0.58344394 0.734616 0.028077785 -0.47115296 0.3541921 -0.83183587 0.86207676 -1.08313 -0.20203882 0.94155174 -0.21006721 0.7039276
啊 0.36555967 0.17276531 0.30066973 -0.66129893 0.0010254128 0.24906065 0.63626605 -0.12770578 0.12666084 0.24993218 -0.52040374 0.056505386 -0.2962342 0.13559386 -0.06747526 -0.07511769 0.058995325 -0.07182355 -0.0658429 -0.32175544 0.34676793 0.021688238 0.24879248 -0.31085172 0.2833151 -0.5374456 0.13279435 -0.44853768 -0.047858328 0.05519941 0.061420564 0.29210466 0.4539612 0.12778002 0.023389617 -0.42597502 -0.13677163 0.15084693 0.1932563 -0.001460161 0.03592179 0.0037148716 0.30042937 0.023667114 -0.05336762 0.007632877 0.62941456 0.32162645 0.6057309 0.60762995 0.0963396 0.13751288 -0.6175521 0.033237856 -0.11127635 -0.13296446 -0.13431452 -0.388863 0.26319146 0.12444203 -0.86085755 0.07612391 0.24824981 -0.0018754594 -0.3358543 0.21918789 0.23136123 0.2744088 0.16176595 -0.004934369 0.1448251 0.32432944 -0.19479768 -0.2874971 -0.18267183 -0.25271112 0.110921554 0.27038845 -0.14295945 0.0075341077 0.35708672 0.2697698 -0.5933759 -0.4886097 0.4352725 0.05706514 -0.12643088 -0.24904984 0.19637176 -0.106258325 0.4123556 0.38053215 -0.0009894988 -0.1783441 -0.005024947 0.03635325 -0.05047488 0.020967575 -0.0016207476 -0.121002086
对 -0.58049065 0.42810938 -0.028223183 -0.30963412 0.07658444 0.49880078 -0.14693604 0.25773925 0.51018 0.3522266 -1.1475167 -0.37424576 -0.8514513 -0.15508807 -1.093304 0.33838665 -0.113531105 -0.14201933 -0.06886719 -0.3408939 0.8809959 0.36425138 -0.12209628 0.30610725 0.033360142 0.18459348 0.64120704 0.63817143 -0.3554151 -0.25745946 0.76170605 -0.12817901 0.29326534 0.049155995 -0.66715926 0.12161513 -1.0186983 -0.4331153 0.4369775 0.19737649 -0.6198101 -0.3951234 -0.61376315 0.8146789 -0.3709024 -0.8775763 0.88652974 0.3228246 -0.31641424 0.4960582 0.34229097 -0.4022735 0.66677654 -0.2812126 0.020166745 -0.08125073 0.10280246 0.09694643 0.462372 0.4114457 0.30347925 0.73725957 -0.6780372 0.40022615 1.1755719 0.23257662 -0.7991001 -0.27890638 -0.58980227 0.14172642 1.130217 0.8395266 -1.1633407 -1.1965294 0.3278694 0.21066567 -0.21113811 -0.83345044 0.28167775 -0.50591123 -0.3374027 0.31527755 0.07698848 0.46835923 -0.60296375 -0.6931917 -0.82921326 0.41299236 -1.118681 -0.034191947 1.605172 0.96576387 0.5331221 0.0127610685 0.24317972 0.290364 -0.0011518775 0.02409099 0.578905 -1.3099071
影响 -0.3829471 0.3156368 0.14720306 0.16448407 0.09137966 0.23421447 -0.017474882 -0.080302805 0.8102926 0.47759733 -1.4568039 -0.46417424 -0.6819001 -0.20459661 -1.1045971 -0.091690265 -0.3067981 -0.22018968 -0.03503662 -0.78729916 0.7476429 0.7150944 -0.27136794 -0.091445684 0.5436189 -0.046431348 0.736651 0.2343895 0.22196443 -0.66814387 0.9389232 -0.23921111 0.26629084 0.3922707 -0.51905185 0.0077696405 -1.2340556 -0.3139424 0.4667907 0.07049618 -0.46827456 -0.8568124 -0.34891602 0.76727635 -0.40721044 -0.70124 0.8100751 0.41457593 0.09055897 0.49815068 0.3338612 -0.46305278 0.3884697 -0.7104097 0.04112124 -0.020848716 -0.2410378 -0.023101805 0.824284 0.2006806 0.12881304 0.16883838 -0.727533 0.5873097 0.9959334 0.4867325 -0.8967379 -0.19587551 -0.17505188 0.030166443 0.7279224 1.0235049 -1.2437621 -1.5756016 0.40048546 0.09972729 -0.47914812 -0.4826966 0.3739172 -0.74938494 -0.23717031 0.47275376 -0.012636117 0.48748577 -0.45936126 -0.3685581 -0.6115582 -0.17098407 -1.1194025 0.025876023 1.7489039 1.1829377 0.31440327 0.2622561 0.46789005 0.19902556 0.023233052 0.11720978 0.46680936 -1.2734717
肾病 -0.15832576 0.2471434 0.239602 -1.4000373 -0.267541 0.40001556 0.22754706 0.43729082 0.30893475 0.13151303 -0.14296693 0.06567003 -0.33781588 -0.16910146 -0.8167978 -0.44735408 0.12888357 -0.47699127 -0.19960451 0.09163896 0.47779515 -0.7093225 0.16753215 0.36241034 -0.6295675 0.051683586 -0.086598866 -0.06590865 -1.0162637 0.33495593 -0.55203205 0.20808488 0.102057405 -0.34528884 -0.5644136 -0.21084964 -0.43267673 -0.30683118 0.49452204 0.12986028 -0.4598197 -0.094520085 0.07264197 0.32244384 -0.41603565 -0.6403483 0.9288087 0.03868108 -0.2607389 0.91863346 0.18528862 0.100924514 -0.22818258 0.03834969 0.2896341 0.17517078 0.27170545 -0.41156763 -0.2588072 -0.19483203 -0.17853886 0.49448615 0.19033079 -0.61052114 0.29398987 -0.39785975 -0.15809661 0.14648958 -0.3449175 0.16514899 0.6765404 0.24633992 0.1733226 -0.23783025 0.021709517 0.42261463 -0.35135776 -0.10667258 0.043892547 -0.03687108 -0.22031012 0.41444308 0.0060971775 -0.38649455 0.23779707 -0.0353505 -0.63799703 0.81239015 0.008866486 0.22549914 0.33580825 0.61851007 0.48438033 -0.20945401 -0.17218512 0.4636592 -0.54319507 0.2762217 0.28679678 -0.24774425
应该 -0.23989445 0.3719947 -0.34480622 -1.2618016 -0.34628877 0.24128239 0.5371258 0.27100915 0.10220112 0.5980436 0.10615174 0.46703804 -0.6347982 0.23615395 -0.51862544 0.15114976 0.07418754 0.3113936 0.3350959 -0.38583472 0.36122695 -0.4529282 0.3802108 0.043225486 -0.41314822 -0.02169789 -0.35426608 0.044470426 -0.6144407 0.1613458 -0.43261924 0.45442367 0.51375777 -0.2628366 0.03587591 -0.18030916 0.22167088 0.03665841 0.23630486 0.3610495 0.24930623 0.34894064 -0.15865028 0.15577295 -0.042415682 -0.2051414 1.0559725 0.2430433 -0.4183772 0.7748017 -0.09924727 -0.17920578 0.033576258 1.0017459 0.18163832 -0.20446214 0.51077527 -0.42122504 0.012002423 0.91937685 -0.5786605 0.5921512 0.1486906 -0.07711319 0.18026213 0.14899449 0.50449234 0.0030377842 -0.6166629 0.21304229 0.7231444 -0.101721115 -0.065284394 -0.4345293 -0.20018147 0.037780676 -0.0705182 -0.091439724 -0.48073468 -0.16379742 -0.015613048 -0.12235331 -0.25909927 -0.2949469 0.5710766 -0.3151805 -0.79721785 0.96398675 0.19468549 0.189763 0.6215256 0.6292707 0.010306591 -0.03361376 -0.43623152 1.0180103 -0.010816625 -0.14413226 0.49405104 -0.3910156
治 -0.14910111 0.19363979 -0.3971519 -1.32783 -0.34293017 -0.10985885 0.24185248 0.46770906 0.5304876 0.3470537 -0.29231068 0.46387583 -0.6926172 -0.25205725 -0.27553818 -0.59525156 0.19344682 0.019225994 -0.10927233 -0.25657985 0.44482607 -0.4232157 0.45901015 0.22965598 -0.5315554 0.37289122 -0.7621166 -0.22159797 -0.42373466 -0.12057062 -0.24913177 0.6422107 0.24994276 -0.3892703 0.50709105 -0.06663417 0.143905 0.103211835 0.6810001 -0.071739145 0.31471202 -0.03409965 0.23459329 -0.3740082 -0.44072285 -0.018436696 0.43462116 -0.089939736 -0.12830287 1.1412418 0.022673054 0.37488768 -0.28682896 0.6499653 0.42934492 0.041556947 0.4526559 -0.36505285 -0.6265284 -0.43281233 -0.17880718 0.7346114 0.4129181 -0.42399144 -0.23289776 0.030458666 0.22224441 0.6856298 -0.16790622 -0.28067175 0.15225138 -0.21537751 0.41534412 -0.45366487 -0.48287022 0.17272222 0.058746148 0.39109707 -0.010254564 0.16818719 -0.24323432 0.3219236 -0.24524112 -0.73117495 0.44327867 0.2885885 -0.49523455 0.92118037 0.25508302 0.57090724 0.07240619 0.47091532 -0.09361987 -0.27606976 -0.39684048 0.68013173 0.094646685 -0.10715327 0.2547484 0.12495081
阳性 -1.1188563 0.42133573 0.27113327 -0.82368386 -1.6660783 0.5431374 1.1729895 -0.57500315 -0.35426614 0.307591 -0.91191775 0.730619 -0.89095324 -0.4185731 0.6563048 0.05060551 -0.7368523 0.36829627 0.3613557 -0.105112664 0.9535376 0.6250887 0.9187759 -0.028574774 0.6200212 -1.2964759 0.4038177 -0.5335457 0.4417242 1.0912105 0.06211009 1.4596546 0.82966936 1.0553135 0.80160254 -0.63099355 -0.24891132 -0.5769549 0.09275491 1.0513734 0.30098498 0.4140453 0.38981968 0.028388776 0.66459984 1.7590975 1.106967 -0.30962712 0.47717714 -0.20530835 -0.3798838 -0.4930182 -0.75720096 1.3676441 0.010721375 0.4619034 0.6632832 -0.67824364 0.18071267 1.1760072 -1.3228822 0.97573096 -0.9646515 -0.25533757 1.035531 1.269016 0.7995836 1.9458328 0.68454605 -0.44398338 0.68738145 0.2504311 -0.87709755 0.76508987 -0.17767262 -1.3469044 0.3619244 -0.6209137 0.18210234 -0.8601334 0.3478969 0.9232732 -0.29907504 0.02420709 0.6602449 -0.2532574 -0.37805364 -0.49622357 0.6934656 0.44015983 1.3525463 0.108797915 -0.5997169 -0.41652438 0.1598184 0.14745025 1.1556879 0.8583414 -0.83976746 0.11235846
尿糖 -0.005994691 0.26565155 0.25239974 -1.261768 -1.3837471 0.79516596 0.34347183 0.040188022 -0.092759654 0.82618177 -0.1114132 0.9909629 -0.6963378 -1.0360304 -0.63284254 -0.31874737 -0.33485284 -0.0050105476 0.29644382 -0.6956755 0.28178313 0.455663 0.40806863 -0.26972365 0.21419205 -1.1158197 0.2013972 -0.76362836 0.9090764 0.8530852 -0.24805042 0.5827713 0.27400476 1.0530733 0.2943492 0.24598724 -0.42696962 0.36610508 -0.14803514 0.8597865 -0.10637255 0.6242477 0.5602646 -0.0066741686 0.68377006 0.6269159 1.0884845 0.06452603 0.29285133 -0.0099573 -0.49073762 -0.4455037 -0.36260235 0.6812415 1.1246865 0.707529 0.3756461 -0.5224337 0.43166497 0.91365874 -0.68778765 0.49375185 -0.53884166 0.52877045 0.93307084 0.3682929 -0.32432246 0.5832168 0.35445842 -0.12784979 0.7458947 0.36027756 -1.1875544 -0.53891283 0.15103453 -0.41936997 -0.14158136 -0.52752423 -0.19471958 -1.0282317 0.4864314 -0.29833946 -0.04496462 0.35217348 0.88742054 -0.15527865 -0.38683668 -0.6193433 -0.74566704 0.4600379 1.754938 1.1626357 -0.33977166 -0.05575724 0.1443095 1.1678672 0.23625797 0.39475527 -0.49784058 -0.65243363
骨转移 0.482955 -0.09061633 0.21593435 -1.2235383 -0.46120724 0.42046854 1.5928581 -0.0366524 0.74636745 -0.16253375 -0.39694324 -0.29354554 -0.12087026 -0.1692237 -0.051848006 -0.5275658 -0.27018774 -0.13931622 -0.5900319 0.35297188 0.89440614 -0.5376794 0.72656214 0.21700582 -0.3325535 0.26512742 -0.022897856 -0.21634786 -0.8171055 -0.6521605 -0.23571587 0.93670183 0.4980976 -0.47767326 0.111957796 -0.6269953 0.095210925 -0.08705237 0.77041584 -0.30445042 -0.33942422 -0.59944445 0.6279017 -0.08687458 -0.6602846 -0.23637785 0.6292832 0.1695075 0.19962253 1.6534944 0.29423386 0.051520605 -0.9982367 0.3118477 -0.2446846 0.40879464 0.036884326 -0.4573333 0.058758184 -0.87307566 -1.0692914 0.12855658 0.93055636 -0.4724173 -0.50911766 -0.12522829 0.5989157 0.88874334 -0.1655788 -0.119612396 0.15344349 0.40522477 0.6933633 -0.43768814 -0.061413977 -0.42843792 -0.1520977 0.1893421 -0.12340433 0.16342643 -0.06415338 0.67888635 -0.82423836 -1.2161876 0.2987091 0.5759934 -1.0585291 1.0252601 0.9121729 -0.17792462 -0.39676943 0.38436836 -0.341503 -0.18110295 -0.21811837 0.18486306 -0.4010407 -0.0016405862 -0.12499973 0.00565107
化疗 -0.03525702 0.14297298 0.20078969 -1.5740472 -1.0053492 0.36018047 2.006753 -0.30323425 1.671054 0.42608398 -0.6569878 0.20687088 -0.2935202 -0.27586126 0.442227 -0.3910925 -0.9931574 -0.03148835 -0.48303926 1.1370215 0.58195645 0.09226927 0.9792272 0.8476631 -0.81152475 0.7345325 0.19193612 0.11316511 -0.59798485 -1.1011196 -0.416285 1.2770821 -0.15251511 -1.0417771 0.3449034 0.024323983 -0.021745406 0.20467535 0.82537836 0.11854755 -0.3347856 -0.61116946 0.6590623 -0.9431564 0.09189648 -0.24173568 0.18167704 0.47715306 -0.3805846 1.9954314 0.6311352 0.28887323 -0.20365492 0.43361485 0.16565952 0.8752425 0.20284937 -0.70902944 0.58568394 -1.3444314 -1.4069802 -0.011206225 0.7041299 0.24390262 -0.18984783 0.49408713 1.1099823 0.54768735 -0.4998573 0.411604 0.66467047 0.5150205 0.3556501 -1.1845744 1.1654458 -1.003903 -0.3781616 -0.6180277 -0.49995518 -0.19245295 -1.1598033 0.6235278 -0.6273016 -0.2786103 -0.014354521 0.48166418 -1.896988 1.1451471 0.48429203 -0.21343708 -0.39335415 1.1977204 -0.6265204 -0.33302715 -0.108002484 0.49284494 0.31671068 -0.49378148 0.11978891 -0.5326811
